Id,Probability
1,-2.78749203682
2,-3.05066490173
3,-4.48459339142
4,-2.20242834091
5,-2.15878844261
6,-2.99925971031
7,-2.84366488457
8,-3.50928878784
9,-6.29956912994
10,-1.54542386532
11,-5.28216266632
12,-3.39053630829
13,-4.88595151901
14,-3.04881572723
15,-3.17695331573
16,-4.37833881378
17,-3.66646122932
18,-4.56275367737
19,-1.50110709667
20,-2.10926222801
21,-5.00735902786
22,-4.88490915298
23,-6.36377191544
24,-0.843408405781
25,-2.54486989975
26,-4.70795726776
27,-2.51838469505
28,-5.41985321045
29,-2.79411649704
30,-4.41015148163
31,-2.69530391693
32,-4.89372730255
33,-4.68630552292
34,-2.90792250633
35,-0.731088876724
36,-2.7245657444
37,-3.74177026749
38,-4.67265033722
39,-4.74339532852
40,-2.73158669472
41,-0.732626020908
42,-1.37751114368
43,-1.77348709106
44,-5.40075302124
45,-3.17879199982
46,-5.77975320816
47,-5.87237024307
48,-4.05667591095
49,-4.44199562073
50,-3.66017699242
51,-4.1022567749
52,-3.58092069626
53,-5.03494787216
54,-3.61179018021
55,-4.04476737976
56,-2.71610856056
57,-5.79229927063
58,-1.24345219135
59,-2.2182571888
60,-2.88478541374
61,-3.49964523315
62,-5.89152383804
63,-3.96036458015
64,-4.59380531311
65,-4.37708997726
66,-4.86076545715
67,-4.49326896667
68,-1.10709905624
69,-4.85941362381
70,-0.559890091419
71,-3.655803442
72,-2.51129150391
73,-5.29338502884
74,-1.20168745518
75,-4.239590168
76,-3.4354057312
77,-2.00925779343
78,-3.20162796974
79,-3.80515146255
80,-4.32297039032
81,-4.88605213165
82,-4.44443464279
83,-2.82571387291
84,-5.60201501846
85,-3.97263407707
86,-4.51585769653
87,-3.75741219521
88,-4.91433763504
89,-3.09483194351
90,-5.22378063202
91,-2.29688572884
92,-5.11260080338
93,-4.41086101532
94,-4.5323138237
95,-5.74281358719
96,-1.25150609016
97,-3.68625545502
98,-2.33150482178
99,-3.9707596302
100,-4.57845020294
101,-3.13643407822
102,-2.99109911919
103,-5.72506904602
104,-3.20553016663
105,-1.28394472599
106,-3.73837423325
107,-0.590116798878
108,-4.89802455902
109,-6.09697437286
110,-3.65685606003
111,-4.49645137787
112,-3.27739572525
113,-4.08823537827
114,-0.525033354759
115,-2.12641000748
116,-4.69968509674
117,-6.1329665184
118,-2.60369253159
119,-4.66536951065
120,-5.16082715988
121,-4.67874956131
122,-2.52709674835
123,-4.87236738205
124,-0.62778532505
125,-5.35379314423
126,-4.82952213287
127,-5.80463552475
128,-4.65925598145
129,-5.54954242706
130,-3.44484686852
131,-3.66455149651
132,-2.39439320564
133,-6.04947710037
134,-2.04234957695
135,-2.96805810928
136,-5.19702243805
137,-1.58598637581
138,-2.94138598442
139,-5.67355489731
140,-4.35466814041
141,-6.19817256927
142,-4.03920984268
143,-5.74397659302
144,-4.55072021484
145,-1.03736329079
146,-5.60676240921
147,-5.84373569489
148,-1.72831332684
149,-5.00196504593
150,-2.7912466526
151,-6.08244132996
152,-4.97182226181
153,-5.42357587814
154,-4.76084375381
155,-4.01684093475
156,-4.32123374939
157,-2.3007080555
158,-5.5016579628
159,-2.16400980949
160,-3.94410586357
161,-5.44914245605
162,-4.2907910347
163,-4.17602348328
164,-2.45241045952
165,-3.90555739403
166,-3.67729258537
167,-1.03845334053
168,-3.57698631287
169,-1.67472732067
170,-4.34300518036
171,-6.04250431061
172,-4.18283557892
173,-4.66801691055
174,-3.30369281769
175,-4.01316213608
176,-0.355262547731
177,-3.51699948311
178,-2.00156354904
179,-4.73924446106
180,-4.60986328125
181,-3.36842513084
182,-5.16483640671
183,-4.0622587204
184,-4.14204645157
185,-1.54614496231
186,-5.10811662674
187,-4.6356344223
188,-3.27982068062
189,-2.27720212936
190,-3.80108046532
191,-4.42650222778
192,-3.39045000076
193,-4.8850312233
194,-2.492436409
195,-4.86719942093
196,-3.50250887871
197,-5.38874292374
198,-5.12020778656
199,-5.32858943939
200,-4.58508300781
201,-2.75347876549
202,-3.79035186768
203,-0.663589179516
204,-3.36781549454
205,-4.63962173462
206,-6.05232810974
207,-4.31944704056
208,-4.31526184082
209,-2.34889745712
210,-5.2251625061
211,-1.51242673397
212,-3.27925038338
213,-3.57950425148
214,-5.31600999832
215,-4.30024766922
216,-2.83815932274
217,-5.1150135994
218,-2.57558345795
219,-4.28517246246
220,-6.19304180145
221,-4.21247577667
222,-4.22128772736
223,-4.07599592209
224,-4.66827917099
225,-4.32768440247
226,-2.48324012756
227,-5.15981912613
228,-2.48051023483
229,-2.22612786293
230,-1.1006860733
231,-1.71240866184
232,-4.57325792313
233,-4.61950159073
234,-5.01637363434
235,-5.63465881348
236,-1.38042032719
237,-2.97478175163
238,-5.71918582916
239,-4.92270612717
240,-4.08675003052
241,-3.6264424324
242,-4.83525514603
243,-5.64858818054
244,-3.8185608387
245,-2.92861151695
246,-4.3401389122
247,-3.83951640129
248,-5.34412002563
249,-4.72940254211
250,-1.03416442871
251,-4.6130232811
252,-0.184624567628
253,-5.84566020966
254,-2.32940030098
255,-7.23929452896
256,-5.05407762527
257,-3.78928232193
258,-1.52449786663
259,-3.84773540497
260,-1.94340372086
261,-4.94243097305
262,-4.29676914215
263,-5.46493530273
264,-3.38254022598
265,-2.32022833824
266,-4.79663228989
267,-2.73270940781
268,-2.97730517387
269,-1.19775366783
270,-5.15404176712
271,-4.13506507874
272,-3.31319594383
273,-5.33558893204
274,-3.7905459404
275,-5.64047241211
276,-3.94420909882
277,-4.20185184479
278,-5.36665534973
279,-3.14925909042
280,-4.25145339966
281,0.210986316204
282,-3.19572401047
283,-2.9886610508
284,-4.91102600098
285,-4.40577697754
286,-5.13140201569
287,-4.46194124222
288,-3.16630792618
289,-2.59343886375
290,-2.49685120583
291,-1.47833120823
292,-5.01152515411
293,-3.71837711334
294,-5.65832281113
295,-5.61374282837
296,-3.82779932022
297,-4.68225574493
298,-3.77198219299
299,-6.20537042618
300,-4.99864673615
301,-2.2059173584
302,-5.34525251389
303,-4.76376533508
304,-5.18471765518
305,-0.423250734806
306,-3.09789204597
307,-6.14172458649
308,-1.89238870144
309,-1.39321827888
310,-5.31451559067
311,-0.299982279539
312,-5.00344657898
313,-0.820836007595
314,-2.9555284977
315,-3.31192159653
316,-2.58007407188
317,-0.915136694908
318,-5.01960706711
319,-5.08661031723
320,-2.43808794022
321,-1.87284016609
322,-4.34066963196
323,-4.45428276062
324,-5.4435505867
325,-2.24485945702
326,-5.04157114029
327,-3.94856381416
328,-4.47207593918
329,-3.77060818672
330,-4.89468097687
331,-4.75969219208
332,-3.84122681618
333,-4.52729940414
334,-3.62058401108
335,-3.06974220276
336,-2.77884745598
337,-4.73787689209
338,-1.37084555626
339,-3.71957373619
340,-4.50849342346
341,-5.99270486832
342,-3.91924071312
343,-4.16481542587
344,-2.83425307274
345,-3.87340497971
346,-3.49454784393
347,0.570114970207
348,-1.99002254009
349,-4.36216497421
350,-5.0818696022
351,-3.78148055077
352,-2.78381085396
353,-6.01032924652
354,-1.65504693985
355,-5.40121507645
356,-5.69246053696
357,0.488730221987
358,-5.85624217987
359,-3.62304019928
360,-1.34189593792
361,-3.71748065948
362,-5.21165513992
363,-6.26226711273
364,-4.40782022476
365,-1.75371956825
366,-2.49845099449
367,-3.90347528458
368,-2.53014874458
369,-4.77593994141
370,-0.519059658051
371,-4.92861509323
372,-1.67412590981
373,-4.98027610779
374,-4.80119276047
375,-4.1581659317
376,-5.43579864502
377,-3.8330218792
378,-5.01794481277
379,-3.98394060135
380,-3.77309536934
381,-4.85753726959
382,-3.59044098854
383,-3.34303474426
384,-1.71319234371
385,-5.36576890945
386,-6.11498355865
387,-5.88435983658
388,-3.81862425804
389,-4.08980846405
390,-4.55432224274
391,-6.0220656395
392,-5.36372900009
393,-3.99030089378
394,-1.58415651321
395,-5.52723169327
396,-5.55278539658
397,-2.71814084053
398,-1.70736134052
399,-4.07913780212
400,-4.03695631027
401,-5.2133936882
402,-5.71058702469
403,-4.27290439606
404,-6.35519742966
405,1.83285903931
406,0.648482143879
407,-3.84859514236
408,-2.79930734634
409,-3.67486643791
410,-4.68416023254
411,-3.79166889191
412,-3.09218001366
413,-2.43648052216
414,-5.04644870758
415,-5.32572841644
416,-1.87164974213
417,-2.08841991425
418,-3.155148983
419,-4.49624443054
420,-4.84187316895
421,-3.96469664574
422,-5.71337080002
423,-3.48630666733
424,-5.96694803238
425,-5.87690114975
426,-5.67432069778
427,-4.21903371811
428,-4.74250793457
429,-2.04050302505
430,-5.02962827682
431,-1.1787699461
432,-5.56255674362
433,-4.34564971924
434,-4.81992721558
435,-2.5927093029
436,-3.67737102509
437,-2.82894849777
438,-2.03897738457
439,-5.14564800262
440,-3.69754648209
441,-4.88076305389
442,-3.83728146553
443,-2.52501726151
444,-6.07822799683
445,-3.4271376133
446,0.255144774914
447,-4.68836164474
448,-2.43864822388
449,-3.01046395302
450,-5.97555112839
451,-3.78693985939
452,-5.88063049316
453,-1.93058133125
454,-5.06748628616
455,-2.5698132515
456,-3.96101570129
457,-3.06183719635
458,-5.21493864059
459,-3.25288701057
460,-4.70496749878
461,-3.94237780571
462,-2.66979885101
463,-4.14834356308
464,-2.83495211601
465,-3.16561794281
466,-6.2460975647
467,-5.00774145126
468,-3.95702242851
469,-5.36036586761
470,-1.11651933193
471,-5.87645196915
472,-5.01117372513
473,-0.476284950972
474,-3.49060869217
475,-4.53472042084
476,-4.58705186844
477,-5.24693584442
478,-4.04360389709
479,-3.88535499573
480,-4.51296949387
481,-2.886105299
482,-5.37329339981
483,-3.71786499023
484,-2.79897475243
485,-6.19860649109
486,-0.7755895257
487,-3.65092372894
488,-2.66669178009
489,-2.05340504646
490,-3.22847414017
491,-3.93814325333
492,-3.9324157238
493,-0.898475468159
494,-5.29051780701
495,-0.676854610443
496,-4.36264944077
497,-4.49569797516
498,-5.271048069
499,-2.51052832603
500,-4.58085346222
501,-4.2638168335
502,-5.04565095901
503,-3.82643437386
504,-4.9689912796
505,-5.49347305298
506,-2.19308638573
507,-3.40473556519
508,-6.14042711258
509,-5.59188747406
510,-4.10259866714
511,-4.57520389557
512,-0.899315774441
513,-3.10022854805
514,-3.53257083893
515,-4.08956336975
516,-1.1516007185
517,-4.95164823532
518,-5.42674636841
519,-6.41166639328
520,-4.06118106842
521,-5.21688079834
522,-5.28750658035
523,-1.97352516651
524,-2.95547986031
525,-2.93042612076
526,0.223762765527
527,-1.88938438892
528,-5.03784656525
529,-2.24160814285
530,-3.87669467926
531,-5.04975414276
532,-5.36592721939
533,-4.52415323257
534,-6.28168582916
535,-4.44818019867
536,-5.67688512802
537,-3.63645172119
538,-3.07426261902
539,-4.27882623672
540,-3.79825568199
541,-3.71690654755
542,-3.54946446419
543,-3.43682456017
544,-2.34847664833
545,-4.37694311142
546,-4.66528749466
547,-2.7915687561
548,-5.71820211411
549,-6.16608047485
550,-1.21292626858
551,-0.979069769382
552,-1.46565663815
553,-5.08996391296
554,-5.25370979309
555,-2.77752923965
556,-3.58604931831
557,-4.83173513412
558,-3.46244955063
559,-2.08020734787
560,-3.05181407928
561,-7.14813518524
562,-4.46472167969
563,-2.64344596863
564,-3.1736638546
565,-2.09497976303
566,-5.51532268524
567,-5.71222114563
568,-4.23519706726
569,-1.29379141331
570,-2.87388038635
571,-1.59028196335
572,-3.88454818726
573,-4.5089468956
574,-2.74672842026
575,-2.70317721367
576,-5.78304338455
577,-3.07535839081
578,-5.27179431915
579,-2.2130651474
580,-5.13160562515
581,-5.54493236542
582,-4.22436285019
583,-5.88540363312
584,-4.21852207184
585,-3.93904852867
586,-5.6760840416
587,-4.73239278793
588,-2.94173049927
589,-4.14389228821
590,-4.6848526001
591,-0.533337056637
592,-5.41356706619
593,-3.98006701469
594,-4.28164291382
595,-1.68634843826
596,-4.5877571106
597,-4.64298725128
598,-4.51017189026
599,-4.28475427628
600,-5.0432062149
601,-5.44721221924
602,-3.54218626022
603,-4.45285654068
604,-4.72768688202
605,-2.49865627289
606,-4.59593200684
607,-2.34621596336
608,-3.91834402084
609,-1.99637556076
610,-4.46863603592
611,-3.27873849869
612,-5.3754119873
613,-5.38561201096
614,-3.42851471901
615,-3.82757329941
616,-5.27126169205
617,-1.95885062218
618,-4.95767354965
619,-4.06746482849
620,-4.1626124382
621,-5.75722408295
622,-4.06163692474
623,-3.41432857513
624,-4.83404254913
625,-2.23769760132
626,0.0964396372437
627,-2.5638833046
628,-4.48583936691
629,-5.21869945526
630,-0.343233764172
631,-5.44040441513
632,-3.43450498581
633,-6.18260908127
634,-2.97953867912
635,-1.83889091015
636,-7.03296089172
637,-5.49188280106
638,-4.56188631058
639,-3.39090323448
640,-5.66268587112
641,-5.38659715652
642,-0.617542147636
643,-1.96773302555
644,-0.327369749546
645,-2.98015117645
646,-1.1130746603
647,-3.84386014938
648,-1.86492311954
649,-5.1052312851
650,-4.54533910751
651,-0.310187518597
652,-5.1352558136
653,-2.97447037697
654,0.122196547687
655,-4.89236307144
656,-3.60771608353
657,-4.050989151
658,-4.80323171616
659,-2.17064881325
660,-1.12419509888
661,-3.53462290764
662,-1.54607069492
663,-1.55280804634
664,-2.48040890694
665,0.0711230710149
666,-6.14486217499
667,-4.35402488708
668,-2.54463505745
669,0.373794049025
670,-3.98682355881
671,-4.4371843338
672,-2.72095823288
673,-3.1831600666
674,-5.70123100281
675,-0.115544095635
676,-0.777025222778
677,-3.72475910187
678,-4.13943576813
679,-3.72496080399
680,-2.05121350288
681,-3.70487380028
682,-4.36831188202
683,-3.05372071266
684,-4.62775993347
685,-2.3238723278
686,-5.75380134583
687,-5.27886343002
688,-4.84878778458
689,-2.08416223526
690,-3.74840712547
691,-3.48415255547
692,-0.0899732857943
693,-3.31668519974
694,-3.68207335472
695,-3.5371863842
696,-5.0268201828
697,-5.20768690109
698,-2.86677837372
699,-0.812343418598
700,-4.67691230774
701,-5.55985927582
702,-1.27956402302
703,-2.68649482727
704,-2.1219792366
705,-4.59286546707
706,-5.10629034042
707,-3.49395990372
708,-4.66276597977
709,-4.66970491409
710,-4.80410051346
711,-2.9439637661
712,-1.2823382616
713,-4.26549530029
714,-4.96623802185
715,-4.4566617012
716,-0.943243801594
717,-5.27929592133
718,-3.59011745453
719,-3.82415866852
720,-6.64056110382
721,-5.63140392303
722,-4.49210786819
723,-3.07482385635
724,-5.16568946838
725,-1.31011736393
726,-5.09723949432
727,-4.79563999176
728,-3.40091609955
729,-2.24626111984
730,0.709365189075
731,-4.49027061462
732,-3.47694015503
733,-5.7653503418
734,-5.4349899292
735,-2.32497143745
736,-3.69965934753
737,-4.03601789474
738,-2.23649644852
739,-4.24612903595
740,-5.42912435532
741,-5.12289142609
742,-5.02727985382
743,-2.63070321083
744,-4.31421327591
745,-4.63243103027
746,-3.53502702713
747,-4.85187721252
748,-3.39418530464
749,-3.29440379143
750,-2.78769111633
751,-1.68958795071
752,-6.27906084061
753,-4.43763637543
754,-5.91714334488
755,-3.66224908829
756,-4.49228334427
757,-3.94164776802
758,-3.44627094269
759,-5.21368074417
760,-4.64454078674
761,-5.05644655228
762,-2.43261957169
763,-2.57073330879
764,-5.70006036758
765,-4.4228758812
766,-2.61380338669
767,-5.53196001053
768,-2.73701620102
769,-4.41577291489
770,-0.719799637794
771,-4.96496582031
772,-1.89163208008
773,-2.33482241631
774,-4.83266973495
775,-3.31200575829
776,-4.60820817947
777,-1.86094236374
778,-5.35129785538
779,-4.71045446396
780,-0.233205676079
781,-2.97543978691
782,-3.61197805405
783,-4.90700531006
784,-2.75632238388
785,-4.13140535355
786,-2.13347911835
787,-4.00064134598
788,-3.53074526787
789,-2.41310858727
790,-1.80259001255
791,-3.74043512344
792,-0.706262648106
793,-2.49373412132
794,-4.029774189
795,-1.08878839016
796,-5.09694385529
797,-2.5854511261
798,-4.32218837738
799,-0.783126235008
800,-4.34416103363
801,-4.72962856293
802,-5.46621990204
803,-2.76848816872
804,-4.46286582947
805,-1.15410578251
806,-3.79314994812
807,-5.05448293686
808,-4.25222921371
809,-3.40291643143
810,-3.9917011261
811,-2.15300130844
812,-3.62653803825
813,-3.12531924248
814,-4.22232437134
815,-1.66634392738
816,-3.1141834259
817,-5.82656860352
818,-3.74878430367
819,-6.66222238541
820,-2.81126832962
821,-5.12913131714
822,-1.03222024441
823,-4.94435024261
824,-4.82912683487
825,-4.8167424202
826,-4.14397621155
827,-2.82068538666
828,-3.62308311462
829,-4.97025108337
830,-4.16884565353
831,-2.09302806854
832,-3.42641997337
833,-1.1624083519
834,-5.08837366104
835,-3.26652622223
836,-3.39490413666
837,-2.23642587662
838,-3.89939236641
839,-2.66952800751
840,-0.788942456245
841,-1.51335680485
842,-3.08968830109
843,-1.16801321507
844,-2.91180896759
845,0.366117924452
846,1.85643005371
847,-4.79639911652
848,-5.45713567734
849,-0.674900233746
850,-4.6876912117
851,-4.46607398987
852,-4.17191982269
853,-2.94214320183
854,-3.43223166466
855,-5.76096391678
856,-3.98041081429
857,-3.90573453903
858,-3.66991138458
859,-6.32615470886
860,-3.63527703285
861,-0.351642459631
862,-6.26091861725
863,-4.84103822708
864,-4.87796258926
865,-5.1429772377
866,-5.61265993118
867,-5.83669281006
868,-2.32430648804
869,-2.91413211823
870,-5.00055170059
871,-4.63457489014
872,-3.00301456451
873,-5.73073768616
874,-5.34853887558
875,-4.87982130051
876,-3.41780996323
877,-3.80151629448
878,-3.63444900513
879,-6.45715475082
880,-3.27907848358
881,-4.87208414078
882,-2.82566070557
883,-1.48158490658
884,-3.80088853836
885,-7.80488634109
886,-3.62654089928
887,-2.86007881165
888,0.15321560204
889,-3.84274411201
890,-2.53083443642
891,-4.71635198593
892,-5.25456762314
893,-0.000363792933058
894,0.642386138439
895,-3.54801893234
896,-4.33691596985
897,-3.64209294319
898,-6.11980724335
899,-4.28839159012
900,-5.78604030609
901,-3.05270123482
902,-3.85669445992
903,-4.49199914932
904,-5.01615715027
905,-5.29906272888
906,-5.10500478745
907,-2.57943940163
908,-1.86232078075
909,-2.91426610947
910,-4.37707519531
911,-3.02410292625
912,-2.79672002792
913,-6.13021039963
914,-4.55319356918
915,-2.28837275505
916,-5.05041313171
917,-4.11769294739
918,-5.24062204361
919,-3.88984894753
920,-3.52200984955
921,-2.84768652916
922,-2.70373368263
923,-1.86764919758
924,-4.52395486832
925,-4.8682756424
926,-2.99449157715
927,-3.25989818573
928,-3.94171047211
929,-2.70001530647
930,-1.17307841778
931,-0.309836685658
932,-4.06035804749
933,-4.03710079193
934,-2.69578480721
935,-6.02610778809
936,-5.62057733536
937,-4.94754362106
938,-4.52085876465
939,-2.81626081467
940,-5.91888093948
941,-2.90384864807
942,-5.01325273514
943,-3.03741836548
944,-1.30338573456
945,-4.55201053619
946,-4.852394104
947,-3.09310746193
948,-3.64863038063
949,-3.99188995361
950,-4.84930706024
951,-7.72373628616
952,-1.78069424629
953,-3.03691101074
954,-5.57013320923
955,-2.38659620285
956,-2.62344145775
957,-4.27882671356
958,-3.59741616249
959,-3.86704421043
960,-4.2973446846
961,-4.47715473175
962,-5.26285076141
963,-5.24305582047
964,-3.62856793404
965,-3.781208992
966,-3.57076621056
967,-3.10059905052
968,-3.81552386284
969,-0.55647200346
970,-2.63982152939
971,-5.85543823242
972,-1.17530918121
973,-3.98408341408
974,-1.62616872787
975,-4.96335220337
976,-4.10128593445
977,-2.56136894226
978,-4.28107118607
979,-2.44427466393
980,0.935414433479
981,-5.99732971191
982,-5.83368396759
983,-4.59040403366
984,-5.76705694199
985,-3.32717752457
986,-0.37883529067
987,-5.88997936249
988,-4.6578130722
989,-4.33390378952
990,-4.54713916779
991,-3.53466868401
992,-5.9380197525
993,-5.70072412491
994,-2.49540185928
995,-5.85794115067
996,-0.203464403749
997,-5.73054361343
998,-3.67887973785
999,-4.39534139633
1000,-5.16032457352
1001,-5.82896852493
1002,-2.72361469269
1003,-4.05797290802
1004,-4.2427854538
1005,-2.80423521996
1006,-4.36427974701
1007,-3.19463777542
1008,-5.255194664
1009,-5.04587697983
1010,-5.2971906662
1011,-4.46345710754
1012,-4.65930366516
1013,-3.93688058853
1014,-2.86153364182
1015,-4.75582551956
1016,-2.19313573837
1017,-5.97025203705
1018,0.531887948513
1019,-3.6400578022
1020,-5.73379850388
1021,-3.95010757446
1022,-2.45007586479
1023,-3.77513790131
1024,-1.24342274666
1025,-3.83123469353
1026,-5.44073009491
1027,-3.87477827072
1028,-5.02059268951
1029,-5.73961019516
1030,-4.76822471619
1031,-5.72317409515
1032,-2.77797985077
1033,-4.52512979507
1034,-3.79294157028
1035,-6.69647216797
1036,-5.01755809784
1037,-4.65912246704
1038,-5.81673812866
1039,-4.49056482315
1040,-6.77444839478
1041,-2.89113926888
1042,-0.663414418697
1043,-5.59038209915
1044,-3.205971241
1045,-3.66009402275
1046,-4.98184394836
1047,-5.74783706665
1048,-4.03657054901
1049,-4.82958698273
1050,-4.45430421829
1051,-4.40960359573
1052,-3.53078770638
1053,-1.55644452572
1054,-5.13313436508
1055,-2.91659545898
1056,-5.93372440338
1057,-6.15134620667
1058,-4.28512239456
1059,-3.38006210327
1060,-2.68629431725
1061,-3.7828669548
1062,-3.88175630569
1063,-4.38445138931
1064,-3.6795630455
1065,-1.67695641518
1066,-4.5270986557
1067,-3.42871618271
1068,-6.41424703598
1069,-4.42590093613
1070,-4.62125396729
1071,-5.01053953171
1072,-2.71642494202
1073,-0.095966219902
1074,-5.42757892609
1075,-4.18820571899
1076,-3.18425583839
1077,-3.2891368866
1078,-5.61167955399
1079,-1.75919520855
1080,-3.25408315659
1081,-4.4694647789
1082,-1.3499724865
1083,-4.12704658508
1084,-2.99148464203
1085,-3.84202528
1086,-4.75812768936
1087,-3.01936864853
1088,-2.70867133141
1089,-0.528320133686
1090,-4.76640081406
1091,-5.3714723587
1092,-5.1403260231
1093,-2.68625664711
1094,-5.27589845657
1095,-1.15849649906
1096,-2.37185049057
1097,-3.88349723816
1098,-1.46044075489
1099,-2.59720945358
1100,-3.20422887802
1101,-3.59605407715
1102,-4.77695035934
1103,-3.85515570641
1104,-5.6389040947
1105,-2.94220995903
1106,-3.69015145302
1107,-4.01366853714
1108,-1.13147139549
1109,-2.97491574287
1110,-4.08628511429
1111,-4.6400976181
1112,-5.25095796585
1113,-4.165538311
1114,-4.21993112564
1115,-4.6116771698
1116,-4.44203805923
1117,-2.7682454586
1118,-1.03348278999
1119,-4.99075174332
1120,-3.87072849274
1121,-3.04432821274
1122,-6.55054235458
1123,-3.88002538681
1124,-1.94551670551
1125,-4.79696941376
1126,-1.87223803997
1127,-4.35491037369
1128,-0.278663307428
1129,-4.67656755447
1130,-4.27038288116
1131,-5.11912155151
1132,-0.927253603935
1133,-3.83824849129
1134,-1.92095708847
1135,-1.37167406082
1136,-3.1652109623
1137,-5.55478620529
1138,-4.86431980133
1139,-3.81303334236
1140,-4.96171617508
1141,-5.0753993988
1142,-4.89033269882
1143,-2.35231208801
1144,-0.530479073524
1145,-3.6532535553
1146,-3.02420949936
1147,-2.64253854752
1148,-3.77796125412
1149,-4.21457052231
1150,-4.48193788528
1151,-4.36457633972
1152,-2.35448455811
1153,-6.25243854523
1154,-4.61934947968
1155,-3.2399661541
1156,-5.32062625885
1157,-0.750868618488
1158,0.580497562885
1159,-3.0298306942
1160,-5.62859916687
1161,-1.37594401836
1162,-3.3299612999
1163,-3.0655310154
1164,-3.7471613884
1165,-3.01652646065
1166,-3.64360976219
1167,-2.46928930283
1168,-4.8750333786
1169,-5.754093647
1170,-4.35506629944
1171,-0.0391131788492
1172,-4.46434116364
1173,-3.92471241951
1174,-4.17516326904
1175,-2.22457671165
1176,0.477019220591
1177,-1.1734483242
1178,-1.36434614658
1179,-4.03265333176
1180,-1.10187256336
1181,-0.838142752647
1182,-3.8245267868
1183,-2.82737970352
1184,-1.32243812084
1185,-3.21153330803
1186,-1.95727145672
1187,-2.61751008034
1188,-0.81817984581
1189,-3.18741631508
1190,-6.04209899902
1191,0.55692332983
1192,-6.13489246368
1193,1.12304747105
1194,-3.80466556549
1195,-2.1088950634
1196,-5.36790800095
1197,-5.62141275406
1198,-4.71960020065
1199,-1.9687306881
1200,-3.32346010208
1201,-4.32887268066
1202,-6.09967851639
1203,-6.20795106888
1204,-5.81360149384
1205,-4.57860279083
1206,-4.92323684692
1207,0.0893100053072
1208,-3.52735042572
1209,-2.42383265495
1210,-4.60440587997
1211,-3.40349912643
1212,-3.98329663277
1213,-6.73924827576
1214,-5.40242338181
1215,1.67184710503
1216,-4.04107236862
1217,-2.11652183533
1218,-5.35802030563
1219,-2.41593456268
1220,-4.14052295685
1221,-2.89787602425
1222,-2.40341639519
1223,-1.89438128471
1224,-5.52986812592
1225,-2.49536800385
1226,-4.04850387573
1227,-5.55872869492
1228,-2.79195642471
1229,-1.38616216183
1230,0.725740730762
1231,-3.99947929382
1232,-1.76011168957
1233,-3.68071484566
1234,1.98224115372
1235,1.77773821354
1236,-5.41902589798
1237,-2.61829900742
1238,0.936791598797
1239,-3.03171563148
1240,-3.69003844261
1241,-5.6438536644
1242,-3.56796550751
1243,-4.86530542374
1244,-3.33664369583
1245,-2.96569252014
1246,-2.05667901039
1247,-3.93853569031
1248,-5.98650789261
1249,-2.1991341114
1250,-5.18581867218
1251,-1.60110080242
1252,-2.26874160767
1253,-3.97881221771
1254,-1.77351438999
1255,-3.23214745522
1256,-3.050314188
1257,-3.88079404831
1258,-4.37344932556
1259,-5.51236915588
1260,-1.2184715271
1261,-4.21419429779
1262,-3.11020827293
1263,-2.09295082092
1264,-4.78081989288
1265,-5.61520147324
1266,-3.68311977386
1267,-2.81752824783
1268,-2.28524637222
1269,-3.64258050919
1270,-2.61832237244
1271,-4.67613554001
1272,-2.09681224823
1273,-2.39355897903
1274,-2.34328150749
1275,-2.1763586998
1276,0.151833370328
1277,-3.81260085106
1278,-0.900572180748
1279,-2.1409535408
1280,-4.98453378677
1281,-0.993055582047
1282,-5.55877780914
1283,-2.84133291245
1284,-3.29532599449
1285,-5.19119215012
1286,-4.48654508591
1287,-4.54751873016
1288,-2.64052009583
1289,-4.19042158127
1290,-3.3780105114
1291,-3.88669776917
1292,-1.5864957571
1293,-3.2108438015
1294,0.603106975555
1295,-4.34521245956
1296,-4.17016601562
1297,-3.71868753433
1298,-4.98852968216
1299,-5.34441995621
1300,-2.28590965271
1301,-4.51671361923
1302,-3.73701715469
1303,-1.02324831486
1304,-2.70883846283
1305,-5.04685115814
1306,-5.81040811539
1307,-1.67303276062
1308,-5.38286209106
1309,-3.58448624611
1310,-2.29761123657
1311,-6.16470432281
1312,-5.61514472961
1313,-1.9100894928
1314,-4.19826602936
1315,-3.1261703968
1316,-4.437707901
1317,0.218453317881
1318,-3.73435735703
1319,-3.91109895706
1320,-5.56139993668
1321,-6.11260509491
1322,-3.01488280296
1323,-2.8986890316
1324,-3.78533601761
1325,-2.86821627617
1326,-5.06163930893
1327,-3.20968174934
1328,-2.86347746849
1329,-2.26925110817
1330,-3.50020456314
1331,-3.87375116348
1332,-5.15807199478
1333,-3.19930529594
1334,-3.89343166351
1335,-2.69392299652
1336,-2.67509484291
1337,-4.78364801407
1338,-3.16125416756
1339,-1.60052120686
1340,-2.84560465813
1341,-4.64523839951
1342,-4.20867776871
1343,-4.57670211792
1344,-3.86873459816
1345,-4.7998085022
1346,-4.95140075684
1347,-3.11046981812
1348,-2.10346794128
1349,-2.05175447464
1350,-5.10724115372
1351,-3.6463932991
1352,-2.63867998123
1353,-5.44847631454
1354,-4.5460896492
1355,-4.07377290726
1356,-4.51817035675
1357,-2.94590806961
1358,-4.4176774025
1359,-3.64200973511
1360,-4.69827842712
1361,-1.39993035793
1362,-5.37319660187
1363,-5.60646295547
1364,-3.78614878654
1365,-2.68498396873
1366,-5.2320356369
1367,-5.79333400726
1368,-2.04498434067
1369,0.57673150301
1370,-5.42414855957
1371,-2.31443858147
1372,-4.96510076523
1373,-4.07578325272
1374,-2.67946052551
1375,-1.6717376709
1376,-4.87725019455
1377,-0.256576269865
1378,-4.18095350266
1379,-3.41626143456
1380,-5.94054079056
1381,-2.54565167427
1382,-2.14151191711
1383,-3.36680412292
1384,-5.97257947922
1385,-4.32615280151
1386,-5.18183469772
1387,-2.82969212532
1388,-2.56968545914
1389,-2.84297347069
1390,-3.9547753334
1391,-4.05863857269
1392,-3.90653181076
1393,-3.41858649254
1394,-2.32182168961
1395,-2.84139704704
1396,-3.1706943512
1397,-4.00199365616
1398,-4.21962547302
1399,-2.30608677864
1400,-2.61897587776
1401,-4.73226356506
1402,-6.18562078476
1403,-5.19961071014
1404,-2.82245922089
1405,-5.15239477158
1406,-5.2793340683
1407,-3.19571685791
1408,-3.7596411705
1409,-4.15287399292
1410,-4.83258247375
1411,-4.68516492844
1412,-5.27555465698
1413,-4.45597982407
1414,-4.46507740021
1415,-4.3944940567
1416,-4.51555681229
1417,-3.08621287346
1418,-5.3032374382
1419,1.17006206512
1420,-4.07620334625
1421,-3.54009103775
1422,-1.61794829369
1423,-6.01617002487
1424,-2.81929826736
1425,-5.07306194305
1426,-4.68060398102
1427,-4.05016899109
1428,-4.6838760376
1429,-3.40247368813
1430,-4.17497873306
1431,-1.7385314703
1432,-4.84266376495
1433,-3.63525223732
1434,-5.10222196579
1435,-5.30761384964
1436,-0.782231748104
1437,-3.50784897804
1438,-5.70843553543
1439,-4.80228614807
1440,-0.0385036915541
1441,-4.66827392578
1442,-4.82778453827
1443,-5.98252534866
1444,-3.55351686478
1445,-5.39216136932
1446,-0.598638653755
1447,-2.01316356659
1448,-4.12941789627
1449,-4.94318675995
1450,-6.14048910141
1451,-2.04118657112
1452,-4.62757492065
1453,-4.89243507385
1454,-4.96832942963
1455,-4.21044063568
1456,-0.808342337608
1457,-3.97551488876
1458,-5.61405086517
1459,-5.03287029266
1460,-4.2602519989
1461,-5.18277454376
1462,-4.75711250305
1463,-0.76062130928
1464,-6.08927869797
1465,-4.57788419724
1466,-3.91988253593
1467,-2.47644400597
1468,-5.68620634079
1469,-2.69115400314
1470,-5.28531837463
1471,-0.55794262886
1472,-3.94738769531
1473,-4.7332406044
1474,-4.14171171188
1475,-0.161365136504
1476,-1.47756814957
1477,-3.29851150513
1478,-5.19019556046
1479,-1.75076532364
1480,-4.14816617966
1481,-4.67112588882
1482,-3.50446820259
1483,-5.81752347946
1484,-3.66398978233
1485,0.562916815281
1486,-0.151500180364
1487,-3.20123124123
1488,-4.39547204971
1489,-2.52792453766
1490,-3.87957167625
1491,-2.73348546028
1492,-3.34440922737
1493,-3.85416436195
1494,-3.0950448513
1495,-1.40133571625
1496,-4.57196187973
1497,-5.46155261993
1498,-1.91824996471
1499,-3.37023425102
1500,-4.78576660156
1501,-2.05087471008
1502,-3.56367683411
1503,-1.69201743603
1504,-2.19817090034
1505,-5.61986351013
1506,-2.04352712631
1507,-3.13731122017
1508,-3.42150712013
1509,-2.81888008118
1510,-4.77253627777
1511,-5.56239032745
1512,-3.82855653763
1513,-4.11036586761
1514,-3.17815423012
1515,-4.37180185318
1516,-4.95636129379
1517,-1.61351299286
1518,-1.44785678387
1519,-4.50268030167
1520,-3.89103031158
1521,-3.21913695335
1522,-3.49331331253
1523,-4.04964780807
1524,-5.87242126465
1525,-2.95884394646
1526,-1.44992589951
1527,-2.82781434059
1528,-3.85538220406
1529,-5.28751420975
1530,-3.4544403553
1531,-3.52998876572
1532,-3.00673604012
1533,-0.381357997656
1534,-2.67397093773
1535,-5.06112146378
1536,-3.93027544022
1537,-0.0836827158928
1538,-4.67130661011
1539,-5.68830156326
1540,-4.85596990585
1541,-1.14898645878
1542,-4.92425489426
1543,-3.68438696861
1544,-3.51523995399
1545,-5.4481549263
1546,-5.26176929474
1547,-2.61803269386
1548,-3.31625890732
1549,-2.35229325294
1550,-4.92053842545
1551,-4.25780916214
1552,-4.75455331802
1553,-2.33857536316
1554,-4.70971393585
1555,0.284947246313
1556,-4.63821411133
1557,-5.74169540405
1558,-0.438461005688
1559,-2.6938700676
1560,-1.99322414398
1561,-4.69888830185
1562,-5.17034292221
1563,-2.6298596859
1564,-5.43380117416
1565,-3.94958281517
1566,-4.34387540817
1567,-5.04611158371
1568,-6.43751478195
1569,-3.72048640251
1570,-0.959151804447
1571,-4.12811613083
1572,-3.87721776962
1573,-2.89086532593
1574,-6.01933813095
1575,-4.03319311142
1576,-3.48379898071
1577,-5.77276992798
1578,-4.77022790909
1579,-5.06919050217
1580,-4.95321655273
1581,-6.04138708115
1582,-4.64497613907
1583,-5.18393707275
1584,-5.76991128922
1585,-4.58384799957
1586,-1.86015176773
1587,-1.65910708904
1588,-0.861426234245
1589,-4.66073703766
1590,-5.66537046432
1591,-3.37060260773
1592,-5.30992126465
1593,-4.92855882645
1594,-1.48108506203
1595,-1.78945398331
1596,-4.11573505402
1597,-4.92121505737
1598,-4.74530220032
1599,-3.79818701744
1600,-5.61771154404
1601,-5.79322624207
1602,-5.10708332062
1603,-2.37709879875
1604,-4.95267724991
1605,-4.04944562912
1606,-2.79219150543
1607,-3.4592602253
1608,-3.23025035858
1609,-4.10680675507
1610,-5.430103302
1611,-3.0415148735
1612,-1.4336681366
1613,-4.20378875732
1614,-2.24623370171
1615,-4.91475248337
1616,1.31797301769
1617,0.846721410751
1618,-3.89279675484
1619,-1.77968621254
1620,-0.663110077381
1621,-1.00022530556
1622,-3.48570585251
1623,0.969315707684
1624,-3.55207777023
1625,-6.44075202942
1626,-5.39396286011
1627,-3.89009022713
1628,-4.04109382629
1629,-3.50223302841
1630,-5.00331878662
1631,-5.34628391266
1632,-0.127958610654
1633,-1.59599721432
1634,-4.196393013
1635,-4.64239120483
1636,-3.33086562157
1637,-4.57399749756
1638,-3.79341411591
1639,-5.53436231613
1640,-2.55872392654
1641,-5.34133481979
1642,-5.49567174911
1643,-4.41294431686
1644,-3.64257478714
1645,-5.71355867386
1646,-5.17297363281
1647,-0.885023891926
1648,-2.19651412964
1649,-3.25659251213
1650,-2.78235983849
1651,-0.157312780619
1652,-5.66629886627
1653,-4.50844764709
1654,-2.35502147675
1655,-4.46884202957
1656,-6.00661039352
1657,-5.12683582306
1658,-4.35233020782
1659,-4.02258300781
1660,-0.659024298191
1661,-2.56800055504
1662,-2.03387498856
1663,-4.74486732483
1664,-2.572453022
1665,-3.28757476807
1666,-4.49362516403
1667,-4.75374364853
1668,-0.268222630024
1669,-5.74377632141
1670,-6.3356962204
1671,-5.27359104156
1672,-4.09356212616
1673,-4.56437969208
1674,-0.341188013554
1675,-5.33175182343
1676,-3.64208984375
1677,-5.27988815308
1678,-1.30624365807
1679,-4.02694416046
1680,-4.96034240723
1681,-0.168353334069
1682,-4.3935675621
1683,-2.7585413456
1684,-4.10423564911
1685,-4.88888072968
1686,-3.85681891441
1687,-5.04823637009
1688,-3.0082116127
1689,-2.65886664391
1690,-1.83472371101
1691,-2.83893585205
1692,-5.01095676422
1693,-1.3213108778
1694,-3.3206911087
1695,-2.88190436363
1696,-3.44604754448
1697,-4.12699127197
1698,-3.40459895134
1699,-0.871325135231
1700,-2.63770294189
1701,-4.57398033142
1702,-3.85885381699
1703,-6.71998691559
1704,-1.57288122177
1705,-4.33263492584
1706,-4.16861963272
1707,-3.04336738586
1708,-4.86429166794
1709,-5.22126865387
1710,-3.02352905273
1711,-2.47093820572
1712,-3.06577563286
1713,-2.00177383423
1714,-4.79281711578
1715,-5.69485187531
1716,-4.883436203
1717,-2.56968617439
1718,-0.436568170786
1719,-6.25394630432
1720,-4.60557556152
1721,-2.47949695587
1722,-4.50335454941
1723,-2.3751001358
1724,-5.97829437256
1725,-3.57612895966
1726,-3.49540281296
1727,-4.26446676254
1728,-0.721990644932
1729,-6.42656135559
1730,-6.02337694168
1731,-3.6126408577
1732,-3.66922736168
1733,-4.54922246933
1734,-3.92442989349
1735,-0.729180634022
1736,-0.791141271591
1737,-3.81637310982
1738,-1.77335548401
1739,-3.65804314613
1740,-2.52653551102
1741,-5.30814933777
1742,-2.65875911713
1743,-3.75081372261
1744,-3.30598902702
1745,-3.93213033676
1746,-0.278741270304
1747,-5.81639814377
1748,-3.20951151848
1749,-5.27455091476
1750,-4.04107141495
1751,-5.17844390869
1752,-4.9666929245
1753,-4.03986549377
1754,-5.01901578903
1755,-2.68681883812
1756,0.375598520041
1757,-4.86352920532
1758,-4.2992401123
1759,-3.71100640297
1760,-4.78264713287
1761,-4.73882293701
1762,-5.56142377853
1763,-4.83849525452
1764,-4.53117036819
1765,-6.05192470551
1766,-1.75110304356
1767,-2.77080583572
1768,-2.55746054649
1769,-5.60234165192
1770,-5.42387771606
1771,-1.55831408501
1772,-4.31029033661
1773,-1.1274958849
1774,-4.41667366028
1775,-5.19024133682
1776,-6.11568307877
1777,-3.28456735611
1778,-3.74575400352
1779,-2.5945546627
1780,-5.08158445358
1781,-3.86190962791
1782,-4.55531692505
1783,-4.137778759
1784,-5.03931474686
1785,-2.1219792366
1786,-5.32258462906
1787,-6.34624576569
1788,-1.87857735157
1789,-5.80911016464
1790,-4.35073566437
1791,-5.09835767746
1792,-2.8107213974
1793,-4.54898834229
1794,-4.2890253067
1795,-3.37380886078
1796,-4.35702133179
1797,-6.52884721756
1798,-2.59540772438
1799,-1.70770406723
1800,-4.79777526855
1801,-3.72529935837
1802,-4.91814088821
1803,-5.89241838455
1804,-5.50977039337
1805,-3.81092166901
1806,-3.00638151169
1807,-3.18429613113
1808,-3.35101985931
1809,-5.29245328903
1810,0.497624367476
1811,-3.08217453957
1812,-3.77988362312
1813,-3.87981176376
1814,-3.88081550598
1815,-3.01323390007
1816,-2.73769235611
1817,-5.05388450623
1818,-6.20911502838
1819,-3.97024798393
1820,-3.91787433624
1821,-4.60483312607
1822,-6.19590091705
1823,-3.60722517967
1824,-5.49645280838
1825,-2.65729522705
1826,-3.3972299099
1827,-4.41280984879
1828,-3.86758303642
1829,-2.61838054657
1830,-4.33745765686
1831,-0.381143301725
1832,-4.34056472778
1833,-4.6121506691
1834,-0.92941814661
1835,-0.74764329195
1836,-2.24565219879
1837,-2.70458889008
1838,-3.95659279823
1839,-2.66687297821
1840,-4.22488021851
1841,-3.80708765984
1842,-4.59936523438
1843,-2.72091412544
1844,-3.06824040413
1845,-3.78308844566
1846,-2.95264077187
1847,-0.846452176571
1848,-4.19288444519
1849,-3.30741810799
1850,-3.18158435822
1851,-5.24646043777
1852,-4.5150680542
1853,-4.51779794693
1854,-4.80871295929
1855,-2.20919299126
1856,-3.90483164787
1857,-4.8594622612
1858,-4.54562044144
1859,-2.45133543015
1860,-3.61667346954
1861,-2.47813844681
1862,-3.33462285995
1863,-0.519262611866
1864,-5.08112573624
1865,-5.13936424255
1866,-2.05137372017
1867,-3.03804302216
1868,-5.51016712189
1869,-5.43922281265
1870,-3.12329530716
1871,-4.17172002792
1872,-3.47249555588
1873,-5.52938461304
1874,-4.57644128799
1875,-0.844161570072
1876,-2.77155470848
1877,-5.80431365967
1878,-4.87607955933
1879,-5.92106056213
1880,-1.57556271553
1881,-2.60898923874
1882,-4.55193424225
1883,-5.1872792244
1884,-1.90991866589
1885,-2.7664577961
1886,-4.68020629883
1887,0.284294724464
1888,-5.15608549118
1889,-1.6181268692
1890,-1.47527444363
1891,-4.63630580902
1892,-6.37097740173
1893,-5.54255151749
1894,-5.78083896637
1895,-2.56651425362
1896,-5.30102109909
1897,-2.87020921707
1898,-3.79043507576
1899,-5.30509281158
1900,-4.107234478
1901,-3.70289111137
1902,-2.4184384346
1903,-2.89277839661
1904,-1.96000790596
1905,-5.43994998932
1906,-4.63348054886
1907,-4.98880529404
1908,-4.94614934921
1909,-3.7928442955
1910,-2.55869078636
1911,-1.90084969997
1912,-4.31254005432
1913,-3.95728874207
1914,-4.01939821243
1915,-3.51208305359
1916,-4.1610455513
1917,-3.26784825325
1918,-3.07432126999
1919,-3.00930356979
1920,-0.832589566708
1921,-2.04351067543
1922,-1.81694328785
1923,-0.639138996601
1924,-2.34575390816
1925,-1.51456308365
1926,-4.2905049324
1927,-3.88788771629
1928,-2.03518915176
1929,-2.69474983215
1930,-1.36363506317
1931,-4.14794969559
1932,-0.701180100441
1933,-4.57097625732
1934,-3.213514328
1935,-2.87598705292
1936,-4.44726657867
1937,-1.78447270393
1938,-4.95333003998
1939,-4.20074415207
1940,-2.61421656609
1941,-4.54789638519
1942,-2.63294744492
1943,-3.45949888229
1944,-4.36844491959
1945,-4.55975484848
1946,-2.85038757324
1947,-6.13459730148
1948,-4.34658002853
1949,-5.34547328949
1950,-3.36379814148
1951,-3.62520360947
1952,-3.94891285896
1953,-2.99919700623
1954,-5.45605707169
1955,-4.29624795914
1956,-2.56967353821
1957,-5.20723247528
1958,-4.03520536423
1959,-3.76198458672
1960,-5.2471871376
1961,-3.6493833065
1962,-4.88585948944
1963,-4.06299591064
1964,-3.07850980759
1965,-5.13124752045
1966,-4.3086180687
1967,-1.06774187088
1968,-1.31402289867
1969,-5.42512655258
1970,-5.26579856873
1971,-4.92719268799
1972,-5.13816976547
1973,-3.95889139175
1974,-3.50142407417
1975,-5.1064414978
1976,1.08025956154
1977,-5.14611196518
1978,-5.39994907379
1979,-0.954373240471
1980,-4.95660209656
1981,-5.09460639954
1982,-3.1745724678
1983,-4.03945875168
1984,-2.3096768856
1985,-3.96077942848
1986,-4.03732585907
1987,-3.294516325
1988,-2.37144470215
1989,-3.33131694794
1990,-3.53379297256
1991,-0.392709165812
1992,-4.92601728439
1993,-0.875275433064
1994,-3.22520160675
1995,-2.20574736595
1996,-6.38128852844
1997,-4.11016845703
1998,-3.88518929482
1999,-3.95961833
2000,-1.97346019745
2001,-5.7608833313
2002,-5.15166330338
2003,-5.38453245163
2004,-2.03659152985
2005,-0.811379790306
2006,-5.42764139175
2007,-3.21956920624
2008,-3.69077157974
2009,-0.111771345139
2010,-4.81190729141
2011,-4.06939029694
2012,-3.06183719635
2013,-3.42636370659
2014,-5.33530712128
2015,-3.11070775986
2016,-4.56500196457
2017,-5.79010772705
2018,-3.23864793777
2019,-4.45506620407
2020,-4.28750371933
2021,-2.44528627396
2022,-3.93255114555
2023,-4.608294487
2024,-6.02701091766
2025,-4.39720249176
2026,-2.8552570343
2027,-5.52897644043
2028,-5.25608348846
2029,-5.40767765045
2030,-5.09035778046
2031,-3.8671233654
2032,-5.76422929764
2033,-3.25581669807
2034,-5.09220552444
2035,-1.38314449787
2036,-2.19209837914
2037,-3.22726011276
2038,-4.80352735519
2039,-3.22965979576
2040,-5.23127603531
2041,-2.5672712326
2042,-4.04090166092
2043,-5.03492641449
2044,-2.74695825577
2045,-4.20001840591
2046,-2.95999670029
2047,-6.65685224533
2048,-5.97447252274
2049,-4.64888525009
2050,-4.41535615921
2051,-4.9071354866
2052,0.997688055038
2053,-3.0896024704
2054,-4.83156776428
2055,-4.41341733932
2056,-2.07657217979
2057,-2.56432318687
2058,-2.44953131676
2059,-4.51935148239
2060,-6.06324672699
2061,-4.473695755
2062,-4.3406662941
2063,-5.02123880386
2064,-2.36329936981
2065,-2.70080471039
2066,-3.93113732338
2067,-3.83796310425
2068,0.90212649107
2069,-4.21602725983
2070,-1.16176521778
2071,-5.08510923386
2072,-0.270282894373
2073,-5.53588008881
2074,-1.08163332939
2075,-3.05280518532
2076,-4.66877317429
2077,-1.7191119194
2078,-0.993481457233
2079,-4.52362680435
2080,-2.74294137955
2081,-5.39656543732
2082,-4.66532325745
2083,-1.99428963661
2084,-6.23897266388
2085,-1.24312853813
2086,-4.66515207291
2087,-4.02726268768
2088,-2.63644218445
2089,-4.39520072937
2090,-5.45557165146
2091,-4.67189359665
2092,-4.01866769791
2093,-4.30434274673
2094,-4.31501674652
2095,-5.09658288956
2096,-3.35281634331
2097,-0.76096200943
2098,-3.15187525749
2099,-3.42908477783
2100,-5.20161724091
2101,-3.47537922859
2102,-2.14086961746
2103,-2.87306475639
2104,-0.587646365166
2105,-2.72508859634
2106,-4.81444215775
2107,-5.61312532425
2108,-3.35075473785
2109,-4.44100809097
2110,-3.59928369522
2111,-3.59926152229
2112,-2.40576529503
2113,-1.43473637104
2114,-2.86629056931
2115,-3.78919172287
2116,-5.34200382233
2117,-4.02142047882
2118,-4.36511564255
2119,-4.74200248718
2120,-1.41872799397
2121,-2.59671187401
2122,-4.13575077057
2123,-4.29538154602
2124,-3.51338577271
2125,-4.01983499527
2126,-2.28666853905
2127,-2.86491537094
2128,-3.88098573685
2129,-3.50015091896
2130,-6.05862665176
2131,-4.09841060638
2132,-1.92059576511
2133,-0.541365027428
2134,-3.37288403511
2135,-5.60361289978
2136,-3.98398756981
2137,-4.5545258522
2138,-4.45386219025
2139,-3.62276744843
2140,-4.78762817383
2141,-2.43479967117
2142,-3.5844244957
2143,-2.32644510269
2144,-4.92589855194
2145,-4.35080862045
2146,-5.13410425186
2147,-1.95217180252
2148,-2.52628350258
2149,-4.50934123993
2150,-4.62791776657
2151,-2.01838302612
2152,-3.38871121407
2153,-4.29308700562
2154,-4.35453224182
2155,-4.11743068695
2156,-6.0228395462
2157,-3.28521871567
2158,-4.30847215652
2159,-5.74256706238
2160,-3.70834779739
2161,-4.85002851486
2162,-4.46610403061
2163,-4.35315036774
2164,-4.65869522095
2165,-0.433653146029
2166,-4.64630746841
2167,-4.92983579636
2168,-4.78277826309
2169,-3.96250605583
2170,-3.16708421707
2171,-5.87057685852
2172,-4.54092359543
2173,-4.40241527557
2174,-4.49687290192
2175,-3.44168233871
2176,-3.15593099594
2177,-4.1871213913
2178,-3.3783853054
2179,0.714978337288
2180,-4.42402219772
2181,-3.90034770966
2182,-5.33797359467
2183,-6.40289163589
2184,-3.31359195709
2185,-1.75045907497
2186,-4.46051502228
2187,-5.12828826904
2188,-3.62449026108
2189,-4.30963134766
2190,-3.74882364273
2191,-0.402922302485
2192,-4.36466264725
2193,-4.62713813782
2194,-3.4416821003
2195,-3.01716065407
2196,-3.70957994461
2197,-6.3179268837
2198,-6.17258167267
2199,-5.2332777977
2200,-8.60176563263
2201,-3.95917630196
2202,-2.22011089325
2203,-5.75219202042
2204,-3.92997455597
2205,-0.684836864471
2206,-3.72581148148
2207,-5.4370059967
2208,-3.58027052879
2209,-3.57200193405
2210,-4.94138908386
2211,-5.32017421722
2212,-3.26845145226
2213,-2.03667616844
2214,-3.96275806427
2215,-4.61510276794
2216,-4.81071805954
2217,-2.51861858368
2218,-5.1224527359
2219,-2.75577688217
2220,-2.95064878464
2221,-1.35571181774
2222,-5.39883232117
2223,-2.80377388
2224,-4.77396678925
2225,-5.84064769745
2226,-5.64635705948
2227,-1.24240541458
2228,-4.30286502838
2229,-2.22133851051
2230,-6.09462070465
2231,-4.62691688538
2232,-4.5658197403
2233,-4.90751743317
2234,-3.91025209427
2235,-5.13257598877
2236,-1.77309083939
2237,-2.95897674561
2238,-3.75497794151
2239,-4.27352619171
2240,-4.61905622482
2241,-4.449259758
2242,0.0955967828631
2243,-4.33646440506
2244,-4.91041231155
2245,-2.62627243996
2246,-4.0730009079
2247,-4.54053449631
2248,-5.12903928757
2249,-2.89897632599
2250,-1.93303442001
2251,-5.09709882736
2252,-3.61690807343
2253,-3.1101167202
2254,-3.94559288025
2255,-3.71982383728
2256,-2.3989648819
2257,-2.97797489166
2258,-6.06201696396
2259,-5.15620136261
2260,-4.1918721199
2261,-2.55931735039
2262,-5.20590257645
2263,-4.80934715271
2264,-5.8063492775
2265,-0.0884283557534
2266,-1.43498027325
2267,-3.29973578453
2268,-2.79201221466
2269,-4.38340854645
2270,-4.75975084305
2271,-0.162718117237
2272,-4.11484384537
2273,-3.51058268547
2274,-3.45124816895
2275,-3.88381767273
2276,-1.34219002724
2277,-0.553820550442
2278,-1.75543069839
2279,-0.425760269165
2280,-3.35970711708
2281,-1.51409256458
2282,-4.78486442566
2283,-5.26239395142
2284,-4.05981731415
2285,-3.32000398636
2286,-0.840588390827
2287,-4.75231456757
2288,-5.5465426445
2289,-1.98302078247
2290,-3.1225733757
2291,0.0376646667719
2292,-3.32848548889
2293,-3.27058506012
2294,-4.53226089478
2295,-2.21572804451
2296,-5.20771837234
2297,-4.52957725525
2298,-4.57363080978
2299,-2.48071122169
2300,-4.72209787369
2301,-5.40190076828
2302,-1.70879840851
2303,-2.48485994339
2304,-1.29132771492
2305,-4.46658372879
2306,-7.52784729004
2307,-3.55672216415
2308,-5.6475019455
2309,-4.25730752945
2310,-6.35473489761
2311,-5.01369428635
2312,-3.26063537598
2313,-2.9573636055
2314,-7.59300947189
2315,-0.653390944004
2316,-2.80996823311
2317,-3.31164503098
2318,-4.67516088486
2319,-5.97926712036
2320,-1.56032216549
2321,-2.26384401321
2322,0.281054228544
2323,-2.70904946327
2324,-2.33318710327
2325,-5.09057807922
2326,-5.54435634613
2327,-0.702555239201
2328,-4.0281047821
2329,-4.02675819397
2330,-3.94913339615
2331,-2.12101554871
2332,-3.57518720627
2333,-5.52799987793
2334,-2.33526682854
2335,-4.64747714996
2336,-3.51641225815
2337,-4.54290103912
2338,-4.59097766876
2339,-4.06202983856
2340,-3.67113757133
2341,-4.77147912979
2342,-3.36578249931
2343,-2.66680002213
2344,-1.27214038372
2345,-0.0135954329744
2346,-1.54235136509
2347,-3.13245177269
2348,-2.23824071884
2349,-4.76781463623
2350,-6.69793558121
2351,-5.29771184921
2352,-2.31119394302
2353,-4.20162677765
2354,-5.33070230484
2355,-4.95419931412
2356,-4.97735643387
2357,-2.1873459816
2358,-0.525713562965
2359,-2.98974132538
2360,-4.30089712143
2361,-3.98212051392
2362,-1.79644680023
2363,-4.04157829285
2364,-2.11502194405
2365,-4.70802879333
2366,-2.37203931808
2367,-3.00565648079
2368,-0.285829246044
2369,-3.3357565403
2370,-6.16507291794
2371,-4.3732714653
2372,-4.99481964111
2373,-4.91290473938
2374,-2.88131093979
2375,-2.88160324097
2376,-5.57811260223
2377,-4.87112569809
2378,-4.58101606369
2379,-5.104991436
2380,-5.43206739426
2381,-4.67489433289
2382,-1.34394276142
2383,-4.56738615036
2384,-5.58885383606
2385,0.199406310916
2386,-4.36067962646
2387,-4.38406801224
2388,-4.37847280502
2389,-4.89195871353
2390,-4.584379673
2391,-3.75066494942
2392,-4.30365657806
2393,-1.63535809517
2394,-6.13289451599
2395,-4.64275932312
2396,-4.024538517
2397,-6.69793558121
2398,-3.78071498871
2399,-5.11944198608
2400,-4.77389574051
2401,-3.33799409866
2402,-1.13493585587
2403,-3.37578630447
2404,-1.62948358059
2405,-4.31257724762
2406,-3.12247419357
2407,-2.83700203896
2408,-4.97382593155
2409,-5.17549133301
2410,-2.67700338364
2411,-3.72094130516
2412,-3.90455389023
2413,-1.50189936161
2414,-3.69612431526
2415,-2.60943102837
2416,-2.73647999763
2417,-5.63517856598
2418,-3.16020703316
2419,-6.28207302094
2420,-3.79899930954
2421,-1.68379461765
2422,-2.24018549919
2423,-5.58606863022
2424,-2.44992637634
2425,-3.21181058884
2426,-2.13562464714
2427,-2.7002196312
2428,-6.25612545013
2429,-4.87335824966
2430,-3.62523722649
2431,-3.40785479546
2432,-1.70264041424
2433,-4.82383441925
2434,-0.499503970146
2435,0.310788273811
2436,-2.26945257187
2437,-3.81018066406
2438,-4.62298870087
2439,-3.0921959877
2440,-4.69727134705
2441,-6.09327316284
2442,-6.21263885498
2443,-5.11421489716
2444,-2.64258599281
2445,-3.98626089096
2446,-2.00500488281
2447,-4.8584651947
2448,-4.46386432648
2449,-5.26919794083
2450,-3.75243592262
2451,-4.06793498993
2452,-3.22669935226
2453,-3.33876824379
2454,-4.90881681442
2455,-5.3890786171
2456,-2.33270335197
2457,-3.01392889023
2458,-4.46459913254
2459,-3.68252301216
2460,-6.0670003891
2461,-2.33489894867
2462,-3.77877235413
2463,-2.01150679588
2464,-2.87085556984
2465,-2.71585226059
2466,-2.37525653839
2467,-4.6646361351
2468,-2.43549728394
2469,-3.49655914307
2470,-4.51352357864
2471,-2.74357843399
2472,-0.339645892382
2473,-5.8410449028
2474,-5.30718851089
2475,-3.07806229591
2476,-4.13932466507
2477,-4.29080152512
2478,-4.51199293137
2479,-4.79352617264
2480,-2.55941224098
2481,-5.56091737747
2482,-6.53565645218
2483,-1.3141528368
2484,-3.60803771019
2485,-4.53029918671
2486,-2.91280245781
2487,-3.81319308281
2488,-3.97020411491
2489,-3.50504827499
2490,-6.26864814758
2491,-2.06121635437
2492,-1.66954505444
2493,-4.17141866684
2494,-4.43626499176
2495,-6.14813899994
2496,-3.17740130424
2497,-1.96607387066
2498,-3.73604154587
2499,-4.63882112503
2500,-3.01873016357
2501,-3.06392526627
2502,-2.96038770676
2503,-3.70784449577
2504,-3.62243556976
2505,-2.96037530899
2506,-2.45451712608
2507,-3.7663064003
2508,-5.06548404694
2509,-2.77222418785
2510,-1.76009464264
2511,-3.40745067596
2512,-6.51402235031
2513,-2.9192712307
2514,-4.93525218964
2515,-0.885711431503
2516,-4.90595626831
2517,-5.63816452026
2518,-3.82655143738
2519,-2.83199238777
2520,-1.02791726589
2521,-4.39401626587
2522,-5.82883453369
2523,-4.32396173477
2524,-6.16476726532
2525,-2.54646205902
2526,-1.66665887833
2527,-3.44952917099
2528,-3.62610721588
2529,-5.13455820084
2530,-4.47943401337
2531,-5.97603178024
2532,-7.84092855453
2533,-3.6418094635
2534,-3.28102397919
2535,-5.31030416489
2536,-4.47682332993
2537,-4.2536034584
2538,-4.26212596893
2539,-2.36584448814
2540,-3.84639596939
2541,-3.44101214409
2542,-5.01260280609
2543,-5.15750932693
2544,-5.15573263168
2545,-4.3008108139
2546,-3.32032179832
2547,-2.93829393387
2548,-2.7943983078
2549,-2.82415056229
2550,-3.55552649498
2551,-3.10723352432
2552,-5.18744373322
2553,-4.87397956848
2554,-4.78524780273
2555,-5.13951015472
2556,-3.84303593636
2557,-2.69299292564
2558,-4.95122337341
2559,-2.51315712929
2560,-1.45391905308
2561,-4.0868062973
2562,-1.78358364105
2563,-4.08455848694
2564,-4.91042900085
2565,-4.47266530991
2566,-3.20811319351
2567,0.452351510525
2568,-4.87338161469
2569,-2.97479987144
2570,-2.74446105957
2571,-2.92159056664
2572,-2.32138371468
2573,-3.16200041771
2574,-3.27102804184
2575,-5.47492170334
2576,-2.49437522888
2577,-5.20948028564
2578,-5.13622808456
2579,-5.01360988617
2580,-5.40835618973
2581,-2.34868407249
2582,-4.48626470566
2583,-6.6405749321
2584,-5.34441041946
2585,-2.73351573944
2586,-5.39057826996
2587,-5.18040466309
2588,-5.51815462112
2589,-4.74843740463
2590,-5.125644207
2591,-3.12070417404
2592,-5.29076385498
2593,-1.80477523804
2594,-5.99760198593
2595,-4.65930700302
2596,-4.00893115997
2597,-5.93443393707
2598,-5.31677675247
2599,-1.71767711639
2600,-4.77350139618
2601,-5.07669258118
2602,-5.09911203384
2603,-3.66569042206
2604,-5.42605209351
2605,-5.22153091431
2606,-4.07961130142
2607,-1.66165602207
2608,-5.54747056961
2609,-2.43632078171
2610,-5.81452083588
2611,-4.98663568497
2612,-2.56942677498
2613,-5.67336750031
2614,-6.099132061
2615,-0.451202481985
2616,-6.18825435638
2617,-5.52893686295
2618,-3.00203347206
2619,-5.79946708679
2620,-5.91103982925
2621,-3.77078390121
2622,-2.85973834991
2623,-5.22085523605
2624,-5.66468667984
2625,-4.24070119858
2626,-5.27370643616
2627,0.153549417853
2628,-2.80186414719
2629,-2.54361963272
2630,-5.61098480225
2631,-3.78252053261
2632,-2.15373945236
2633,-4.77886152267
2634,-1.80829739571
2635,-5.63533496857
2636,-2.42143821716
2637,-5.29749631882
2638,-1.91195547581
2639,-2.64679336548
2640,-2.12904310226
2641,-3.81966805458
2642,-5.45232343674
2643,-4.61421489716
2644,-4.0906624794
2645,-4.12666654587
2646,-5.21827793121
2647,-4.57505226135
2648,-5.4625711441
2649,-3.86230587959
2650,-4.45732736588
2651,-1.63062930107
2652,-4.67552757263
2653,-3.51740765572
2654,-1.75813746452
2655,-0.873670101166
2656,-1.99214541912
2657,-4.56072759628
2658,-1.02077758312
2659,-2.89367818832
2660,-4.44687795639
2661,-2.90962719917
2662,-5.43441772461
2663,-2.63084125519
2664,-4.62529182434
2665,-2.41763043404
2666,-5.26712656021
2667,-5.02313137054
2668,-1.7228654623
2669,-3.25645327568
2670,-3.62576770782
2671,-4.40538024902
2672,-3.02379441261
2673,-4.66945505142
2674,-4.67872238159
2675,-4.98842573166
2676,-5.37158727646
2677,-4.95023679733
2678,-5.92338371277
2679,-3.594009161
2680,-3.57351279259
2681,-2.78748345375
2682,-3.11305260658
2683,-6.69777154922
2684,-2.01834368706
2685,-2.73340082169
2686,-2.6442656517
2687,-5.95268440247
2688,-4.00008010864
2689,-3.52380776405
2690,-5.51183700562
2691,-5.41734743118
2692,-3.79300022125
2693,-3.83162641525
2694,-4.52155971527
2695,-2.66543626785
2696,0.234397158027
2697,-2.91234898567
2698,-0.136852681637
2699,-3.50572538376
2700,-3.86440467834
2701,-6.25811052322
2702,-4.95648050308
2703,-5.41837787628
2704,-5.07077646255
2705,-1.92229199409
2706,-5.74653482437
2707,-3.70595479012
2708,-3.39496231079
2709,-2.19230508804
2710,-3.0360929966
2711,-3.83500146866
2712,-0.642547249794
2713,-4.61344432831
2714,-2.73601078987
2715,-4.79229593277
2716,-4.42683744431
2717,-0.321223586798
2718,-3.87409925461
2719,-4.34935283661
2720,-5.32741260529
2721,-3.60682749748
2722,-2.29793930054
2723,-2.17054867744
2724,-4.44242048264
2725,-5.14319086075
2726,-4.33043622971
2727,-4.07328510284
2728,-2.44208908081
2729,-2.51499629021
2730,-5.00421714783
2731,-2.55310773849
2732,-5.38364505768
2733,-2.71504163742
2734,-3.42737865448
2735,-4.72125768661
2736,-4.09855556488
2737,-3.14820313454
2738,-4.43639230728
2739,-5.80357646942
2740,-5.2167224884
2741,-1.67922008038
2742,-1.16264677048
2743,-5.46892976761
2744,-4.35708475113
2745,-3.27539205551
2746,-6.42193651199
2747,-4.85192298889
2748,-5.6258392334
2749,-4.5847697258
2750,-2.94923400879
2751,-3.64463686943
2752,-3.58194947243
2753,-2.36722254753
2754,-5.08278894424
2755,-5.39595460892
2756,-2.04989337921
2757,-1.0039806366
2758,-2.35369253159
2759,-1.56773030758
2760,-2.56165623665
2761,-5.63148736954
2762,-1.8001947403
2763,-6.52210903168
2764,-0.968562781811
2765,0.314636439085
2766,-5.28034448624
2767,-5.02240180969
2768,-3.71190524101
2769,-4.39575386047
2770,-5.93295955658
2771,-2.97847342491
2772,-4.4479393959
2773,-3.95559167862
2774,-2.49595570564
2775,-2.36641263962
2776,-1.75042355061
2777,-2.31268882751
2778,-2.85960221291
2779,-4.49289178848
2780,-4.7880153656
2781,-3.68447518349
2782,-5.70159816742
2783,-3.32823753357
2784,-2.83618140221
2785,-3.0178334713
2786,-5.36511516571
2787,-4.96561098099
2788,-3.65005683899
2789,-4.28482532501
2790,-2.41430401802
2791,-5.27587413788
2792,-3.49825024605
2793,-1.95198917389
2794,-3.4623837471
2795,-2.49920916557
2796,-1.04575526714
2797,-0.993620574474
2798,-4.37707471848
2799,-2.35349345207
2800,-3.40346240997
2801,-3.25525808334
2802,-3.47629785538
2803,-0.605299293995
2804,-3.28866934776
2805,-1.68825733662
2806,-5.33340024948
2807,-3.61445188522
2808,-4.71980857849
2809,-5.27981424332
2810,-2.15356445312
2811,-3.25944590569
2812,-5.23596048355
2813,-4.15696001053
2814,-2.98535633087
2815,-3.22186946869
2816,-4.32292890549
2817,-0.557532429695
2818,-3.73276782036
2819,-2.24997186661
2820,-2.7089600563
2821,-4.13420248032
2822,-1.51590144634
2823,-3.27063345909
2824,-2.17100358009
2825,-4.82509994507
2826,-4.26300764084
2827,-4.32803249359
2828,-5.71056175232
2829,-2.2944920063
2830,-3.37591481209
2831,-5.95409011841
2832,-4.59333848953
2833,-2.20908355713
2834,-4.81991243362
2835,-5.08789491653
2836,-5.88879013062
2837,-6.03309869766
2838,-4.14000701904
2839,-6.08160448074
2840,-3.15340662003
2841,-5.83828449249
2842,-3.44052886963
2843,-2.69241285324
2844,-3.41917729378
2845,-3.73923254013
2846,-4.33935785294
2847,-3.36848473549
2848,-4.23469829559
2849,-2.52731657028
2850,-5.18156290054
2851,-4.54573202133
2852,-0.0838336646557
2853,-4.62007236481
2854,-4.79981851578
2855,-1.18289744854
2856,-3.95581555367
2857,-1.22606921196
2858,-5.34820270538
2859,-2.03239536285
2860,-4.51641798019
2861,-3.76177167892
2862,-3.13425064087
2863,-6.24836158752
2864,-3.80422949791
2865,-5.06935787201
2866,-1.45475244522
2867,-3.9866912365
2868,-3.21851849556
2869,-4.20869922638
2870,-1.3312151432
2871,-5.78764104843
2872,-4.48130464554
2873,-5.81653738022
2874,-3.94287037849
2875,-2.19071888924
2876,-6.22472715378
2877,-3.71987128258
2878,-5.78509616852
2879,-0.88265478611
2880,-4.81680250168
2881,-5.11139822006
2882,-2.59322714806
2883,-4.30134820938
2884,-3.34823274612
2885,-3.29846668243
2886,-2.3862490654
2887,-4.46277427673
2888,-4.29100751877
2889,-5.58146429062
2890,-2.42467713356
2891,-3.02660751343
2892,-2.33336925507
2893,-1.33128356934
2894,-2.23605513573
2895,-0.122959136963
2896,-5.59238815308
2897,-4.90325641632
2898,-2.92226219177
2899,-3.63925004005
2900,-3.443608284
2901,-2.03100681305
2902,-4.32527828217
2903,0.419662088156
2904,-2.43826603889
2905,-4.57769107819
2906,-4.16662406921
2907,-5.49445104599
2908,-4.59137964249
2909,-5.63010787964
2910,-2.34247636795
2911,-3.33989191055
2912,-1.09129190445
2913,-4.58670854568
2914,-3.0608792305
2915,-4.26522779465
2916,-2.33462095261
2917,-4.1491317749
2918,-3.31429982185
2919,-5.20221424103
2920,-4.01754188538
2921,-6.78650999069
2922,-1.30993950367
2923,-5.16396045685
2924,-5.06104373932
2925,0.0166559647769
2926,-3.75821709633
2927,-4.55573797226
2928,-4.26403474808
2929,-1.50582659245
2930,-2.49444103241
2931,-1.50966310501
2932,-4.90305519104
2933,-5.06583452225
2934,-1.01059985161
2935,-5.33554029465
2936,-5.04304695129
2937,-4.61113405228
2938,-2.74526953697
2939,-4.38545751572
2940,-0.361342579126
2941,-1.27284097672
2942,-5.18627166748
2943,-3.79195165634
2944,-5.09983634949
2945,0.0902040600777
2946,-4.36655855179
2947,-5.40015602112
2948,-5.80502700806
2949,-3.0624229908
2950,-4.44871425629
2951,-5.66273021698
2952,-4.75733375549
2953,-0.771168231964
2954,-2.36157655716
2955,-5.0804066658
2956,-1.12881183624
2957,-2.36257624626
2958,-5.62997293472
2959,-3.49535989761
2960,-5.05542898178
2961,-3.93725037575
2962,-4.49767351151
2963,-3.68275117874
2964,-3.20789146423
2965,-3.87801408768
2966,-2.02801513672
2967,-5.8445854187
2968,-5.0753993988
2969,-4.01784563065
2970,-2.63734102249
2971,-2.71131539345
2972,-5.64258909225
2973,-5.92167663574
2974,0.0190180391073
2975,-3.94319558144
2976,-5.23881483078
2977,-3.63941311836
2978,-3.72315740585
2979,-2.56408143044
2980,-5.92874526978
2981,-2.15953588486
2982,-4.74436044693
2983,-5.29948377609
2984,-6.32585144043
2985,-1.37978756428
2986,-0.671552062035
2987,-4.78237867355
2988,-1.26384270191
2989,-3.18683409691
2990,-0.796969234943
2991,-4.15259599686
2992,-3.18081068993
2993,-2.39834880829
2994,-3.06347632408
2995,-3.0079100132
2996,-2.58135294914
2997,-3.71240067482
2998,-0.820863425732
2999,-1.75449252129
3000,-5.03485393524
3001,-1.58723771572
3002,-1.81683957577
3003,-3.7817735672
3004,-3.55915784836
3005,-4.20896816254
3006,-3.65746903419
3007,-1.24890053272
3008,-2.01489639282
3009,-0.644662439823
3010,-2.38458514214
3011,-4.88280344009
3012,-2.43648934364
3013,-3.15942287445
3014,-2.24725604057
3015,-5.26984930038
3016,-4.04394483566
3017,-3.87863492966
3018,-1.00588583946
3019,-2.0829513073
3020,-3.85680508614
3021,-3.62894797325
3022,-4.04343080521
3023,-2.12205839157
3024,-1.15171766281
3025,-4.79797172546
3026,-2.11931228638
3027,-2.43492794037
3028,-2.84384155273
3029,-0.875055193901
3030,-3.72213864326
3031,-4.1551656723
3032,-0.0716214030981
3033,-4.9693903923
3034,-1.19333577156
3035,0.971598386765
3036,-4.06689214706
3037,-4.20021343231
3038,-5.55444526672
3039,-1.62233603001
3040,-4.12023115158
3041,-3.69773459435
3042,-3.89562439919
3043,-5.04112529755
3044,-6.1427936554
3045,-2.84412145615
3046,-5.20516443253
3047,-3.63018584251
3048,-4.10822820663
3049,-3.77695322037
3050,-2.54651880264
3051,-3.49774956703
3052,-4.05299329758
3053,-4.86120939255
3054,-5.3771033287
3055,-2.12314224243
3056,-5.34923934937
3057,-3.51132559776
3058,-3.01346540451
3059,-6.0252995491
3060,-4.55787467957
3061,-1.75954759121
3062,-3.24171972275
3063,-3.79950714111
3064,-6.32008838654
3065,-3.33920192719
3066,-5.3735833168
3067,-0.738523960114
3068,-3.67331242561
3069,-4.68739318848
3070,-5.004778862
3071,-3.82604146004
3072,-5.39286470413
3073,-4.81573438644
3074,-6.00108242035
3075,-5.58200836182
3076,-4.05705118179
3077,-2.30421948433
3078,-4.2988524437
3079,-1.91729176044
3080,-5.6974105835
3081,-3.49844455719
3082,-4.2817029953
3083,-3.57881855965
3084,-5.37206840515
3085,-1.8914000988
3086,-4.76070928574
3087,-5.89931249619
3088,-3.72344040871
3089,-1.94828283787
3090,-5.06515216827
3091,-4.97528219223
3092,-2.99496197701
3093,-2.1455924511
3094,-4.53629636765
3095,-2.64338850975
3096,-5.26611995697
3097,-4.70294189453
3098,-4.2125582695
3099,-2.42987442017
3100,-3.78479766846
3101,-4.5032043457
3102,-3.03729534149
3103,-3.33786177635
3104,-1.3775113821
3105,-3.82120299339
3106,-4.56204319
3107,-3.62698936462
3108,-3.33612775803
3109,-5.52101993561
3110,-4.62398290634
3111,-3.45855045319
3112,-4.364818573
3113,-3.81524133682
3114,-3.13565826416
3115,0.20076200366
3116,-3.87745714188
3117,-3.42302632332
3118,-2.65197730064
3119,-4.9111289978
3120,-4.01932239532
3121,-5.30392074585
3122,-6.14114761353
3123,-4.42390871048
3124,-6.176030159
3125,-5.45997667313
3126,-5.3467502594
3127,-1.67951381207
3128,-2.32909750938
3129,-4.65390062332
3130,-4.20172119141
3131,-0.954627811909
3132,-1.40377223492
3133,-2.16106271744
3134,-2.43847489357
3135,-6.1168012619
3136,-3.71118402481
3137,0.473313957453
3138,-3.3992960453
3139,-0.735477030277
3140,-4.9276766777
3141,-3.97782588005
3142,-2.82945489883
3143,-2.41744399071
3144,-4.02288532257
3145,-2.23742437363
3146,-5.87659025192
3147,-4.70589447021
3148,-5.52487277985
3149,-2.38385152817
3150,3.74524569511
3151,-0.662309288979
3152,-3.29248738289
3153,-3.63837051392
3154,-4.59172534943
3155,-3.62782669067
3156,-5.13684558868
3157,-4.68582677841
3158,-4.14764785767
3159,-2.07862710953
3160,-4.83242893219
3161,-4.84778404236
3162,-3.73291516304
3163,-5.33533430099
3164,-5.26171255112
3165,-2.69726991653
3166,-4.46077489853
3167,-4.74470424652
3168,-2.96611881256
3169,-4.38261985779
3170,-6.7602853775
3171,-3.57107138634
3172,-1.13707780838
3173,-3.82675909996
3174,-3.44194984436
3175,-4.81740999222
3176,-4.66277313232
3177,-2.97894525528
3178,-3.047301054
3179,-4.91012907028
3180,-4.40440225601
3181,-3.61129069328
3182,-3.77414155006
3183,-6.0729970932
3184,-3.9274494648
3185,-5.58730077744
3186,-4.4968791008
3187,-5.21764183044
3188,-6.05140447617
3189,-2.97119688988
3190,-5.17532634735
3191,-2.79877567291
3192,-2.21499729156
3193,-5.36384773254
3194,-4.40248966217
3195,-1.20110797882
3196,-4.27551794052
3197,-1.81293773651
3198,-5.48598194122
3199,-4.12766599655
3200,-3.91316318512
3201,-4.45859909058
3202,-6.1151509285
3203,-1.91358828545
3204,-2.68746256828
3205,-3.86363887787
3206,-1.40075576305
3207,-5.3257522583
3208,-4.62507629395
3209,-3.25761127472
3210,2.01353383064
3211,-0.358142584562
3212,-2.9626531601
3213,-2.31721019745
3214,-0.484194397926
3215,-4.13573265076
3216,-3.34958124161
3217,-3.66955828667
3218,-3.97073912621
3219,-2.36041498184
3220,-2.43468737602
3221,-2.30052089691
3222,-1.0823622942
3223,-6.2722234726
3224,-3.86854553223
3225,-3.7173769474
3226,-2.17695069313
3227,-4.98227119446
3228,-5.36020231247
3229,-3.73520493507
3230,-3.91897082329
3231,-3.02255773544
3232,-3.71009039879
3233,-2.80588722229
3234,-4.79422903061
3235,-3.11520528793
3236,-3.7539088726
3237,-5.39317703247
3238,-3.02200317383
3239,-4.54080247879
3240,-4.84792709351
3241,-5.1539478302
3242,-2.83922600746
3243,-4.72541666031
3244,-4.55014944077
3245,-2.99107027054
3246,-5.68082809448
3247,-5.51848602295
3248,-2.78776574135
3249,-0.715217530727
3250,-3.36558032036
3251,-5.65449857712
3252,0.229297280312
3253,-5.74998426437
3254,-2.09740519524
3255,-2.23742008209
3256,-4.84521055222
3257,-2.11361265182
3258,-4.00592803955
3259,-3.1200196743
3260,-2.07337713242
3261,-4.87827205658
3262,-3.60078430176
3263,-0.750000238419
3264,-4.69656515121
3265,-3.76284408569
3266,-4.47028541565
3267,-4.39236593246
3268,-0.136179357767
3269,-6.2190489769
3270,0.0212797112763
3271,-3.50077080727
3272,-1.83356201649
3273,-2.37664842606
3274,-2.91027188301
3275,-3.83579444885
3276,-5.80083847046
3277,-2.67758369446
3278,-2.74662017822
3279,-4.81786489487
3280,-4.91695785522
3281,-2.30385899544
3282,-3.15315032005
3283,-5.79188203812
3284,-3.04420566559
3285,-4.40224695206
3286,-3.57666897774
3287,-4.82639074326
3288,-6.29361629486
3289,-2.81771302223
3290,-0.353004038334
3291,-4.15890407562
3292,-2.01363611221
3293,-3.73521471024
3294,-1.15729904175
3295,-1.66854095459
3296,-2.23147344589
3297,-2.36872267723
3298,-5.14958715439
3299,-5.8008518219
3300,-2.89579677582
3301,-1.42636597157
3302,-4.29427719116
3303,-4.50955247879
3304,-1.13173258305
3305,-2.5598115921
3306,-0.653986573219
3307,-7.49031925201
3308,-3.47532963753
3309,-3.88477611542
3310,-2.92121100426
3311,-4.12130498886
3312,0.666152656078
3313,-5.26649427414
3314,-3.83651185036
3315,-1.96132659912
3316,-0.00220924941823
3317,-1.53930211067
3318,-4.31054162979
3319,-4.28322410583
3320,-2.42696595192
3321,-4.61934566498
3322,-3.07503890991
3323,-0.677794754505
3324,-3.72748327255
3325,-2.03121733665
3326,-2.9274225235
3327,-4.91648960114
3328,-2.49820327759
3329,-3.96230721474
3330,-1.92380654812
3331,-1.8592287302
3332,-4.74435710907
3333,-3.40304279327
3334,-4.65052127838
3335,-2.06722617149
3336,-0.810687065125
3337,-3.53853607178
3338,-3.36721372604
3339,-5.45893287659
3340,0.0191788878292
3341,-4.29629039764
3342,-4.11636686325
3343,-6.15943813324
3344,-3.7814719677
3345,-2.37187361717
3346,-3.6613483429
3347,-2.31455230713
3348,-2.67532348633
3349,-2.86956524849
3350,-2.59380149841
3351,-4.12659406662
3352,-2.76020312309
3353,-4.31497526169
3354,-2.97526717186
3355,-2.53076601028
3356,-0.603330135345
3357,-3.29701328278
3358,-5.59560012817
3359,-1.52745461464
3360,-3.6937584877
3361,-0.171769529581
3362,-3.97485733032
3363,-3.64997339249
3364,-3.0711119175
3365,-5.39091777802
3366,-2.62490868568
3367,-5.35745286942
3368,-4.61792182922
3369,-0.18777218461
3370,-4.40953731537
3371,-4.33948802948
3372,-3.27854275703
3373,-4.44705581665
3374,-4.1372385025
3375,-3.71285414696
3376,-3.23999762535
3377,-5.33994340897
3378,-2.13328814507
3379,-3.85248994827
3380,-3.69266223907
3381,-5.97921180725
3382,-2.62574100494
3383,-4.73954057693
3384,-5.78557872772
3385,-0.58860963583
3386,-4.78947305679
3387,-5.22630357742
3388,-3.06917405128
3389,-1.2513794899
3390,-5.67806482315
3391,-3.21420621872
3392,-4.46919298172
3393,-4.4397521019
3394,-2.97593975067
3395,-1.98626804352
3396,-2.72528624535
3397,-3.53118371964
3398,-2.87048625946
3399,-3.96350884438
3400,-4.3636932373
3401,-3.87124419212
3402,-2.06632995605
3403,-1.99066734314
3404,-5.27967739105
3405,-6.0927939415
3406,-3.98574066162
3407,-1.22655594349
3408,-1.01064777374
3409,-3.79838943481
3410,-4.09639310837
3411,-2.77527332306
3412,-6.10809278488
3413,-5.09089422226
3414,-1.47147071362
3415,-4.65230607986
3416,-4.26054620743
3417,-2.24039292336
3418,-4.32445383072
3419,-3.18626594543
3420,-4.53734397888
3421,-5.71898603439
3422,-4.75804328918
3423,-2.08152675629
3424,-3.94317722321
3425,-0.899326503277
3426,-6.17360973358
3427,-4.35139942169
3428,-5.02482795715
3429,-3.6950109005
3430,-5.74031400681
3431,-1.67191004753
3432,-3.40514111519
3433,-3.51507902145
3434,-3.05185651779
3435,-5.73336839676
3436,-4.10698366165
3437,-5.46052646637
3438,-0.474623888731
3439,-5.27210378647
3440,-3.09249615669
3441,-5.50096702576
3442,-5.72779846191
3443,-1.08243215084
3444,-1.12682497501
3445,-6.00385284424
3446,-3.47316932678
3447,-5.24529695511
3448,-5.02749013901
3449,-5.1232881546
3450,-3.07589697838
3451,-2.58718800545
3452,-3.92634415627
3453,-5.72697973251
3454,-2.77724504471
3455,-5.10246896744
3456,-5.39380741119
3457,-4.03706979752
3458,-3.2534968853
3459,-3.7489221096
3460,-5.22243309021
3461,-3.1225335598
3462,-5.3841085434
3463,-4.35348081589
3464,-4.32290935516
3465,-5.31404495239
3466,-2.94313001633
3467,-3.52838277817
3468,-1.81149685383
3469,0.562253534794
3470,-2.69514250755
3471,-5.02140808105
3472,-4.79647016525
3473,-4.97201871872
3474,-3.86487007141
3475,-1.63888859749
3476,-4.31280994415
3477,-4.21695995331
3478,-3.33241343498
3479,-3.71508097649
3480,-0.631737589836
3481,-4.94197177887
3482,-1.07192921638
3483,-5.61675167084
3484,-1.17516875267
3485,-5.76090860367
3486,-2.47840595245
3487,-2.86893987656
3488,-6.27023077011
3489,-4.92600011826
3490,-3.31184077263
3491,-4.57882785797
3492,-5.65750598907
3493,-2.87874174118
3494,-2.04229640961
3495,-2.05382633209
3496,-2.49952435493
3497,-3.43572282791
3498,-2.34504461288
3499,-5.54933738708
3500,-1.56389939785
3501,-3.79537725449
3502,-0.498470366001
3503,-5.8416686058
3504,-3.47229957581
3505,-3.817258358
3506,-4.17445993423
3507,-3.92949438095
3508,0.234183058143
3509,-4.70348930359
3510,-4.7308139801
3511,-5.48128795624
3512,-4.74159145355
3513,-4.89584541321
3514,-4.53528213501
3515,-3.26338410378
3516,-5.3578543663
3517,-4.96768188477
3518,-2.04332947731
3519,-4.48326921463
3520,-4.68821144104
3521,-1.50585246086
3522,-5.13107633591
3523,-3.90041089058
3524,-2.68185400963
3525,-3.92437386513
3526,-5.54958057404
3527,-5.37403583527
3528,-5.47981262207
3529,0.600315570831
3530,-4.73330640793
3531,-4.86573648453
3532,-4.41862630844
3533,-4.94841003418
3534,-2.99149370193
3535,-2.57024312019
3536,-2.84487700462
3537,-2.21480846405
3538,-1.81220602989
3539,-2.73093080521
3540,-1.60530030727
3541,-4.5517821312
3542,-3.67386865616
3543,-3.88084149361
3544,0.675418913364
3545,-4.44898891449
3546,0.516517162323
3547,-3.35541033745
3548,-3.08702421188
3549,-4.80149698257
3550,-4.2685880661
3551,-2.54474520683
3552,-3.050822258
3553,-3.77083015442
3554,-1.1361219883
3555,-4.12257242203
3556,-3.58619427681
3557,-4.8022146225
3558,-2.01306009293
3559,-3.66263794899
3560,-4.77411699295
3561,-1.46290397644
3562,-4.42878913879
3563,-4.17579269409
3564,-2.58822107315
3565,-3.90124678612
3566,-2.22866511345
3567,-4.42533397675
3568,-3.6112370491
3569,-4.31705570221
3570,-3.30403208733
3571,-5.37698507309
3572,-3.79429626465
3573,-3.56848311424
3574,-3.37498378754
3575,-3.78857731819
3576,-3.98650336266
3577,-2.26211166382
3578,-5.57200670242
3579,-4.10460662842
3580,-4.10722351074
3581,-3.39044642448
3582,-5.79919290543
3583,-4.9551820755
3584,-5.13662338257
3585,-3.73908400536
3586,-3.73081278801
3587,-5.62177276611
3588,-2.45375370979
3589,-3.19904279709
3590,-3.7119705677
3591,-3.54860091209
3592,-2.59485054016
3593,-1.37068676949
3594,-3.13299298286
3595,-2.45824313164
3596,-5.38316822052
3597,-3.21662521362
3598,-3.63218808174
3599,-5.17582273483
3600,-3.07501220703
3601,-2.52561211586
3602,-6.04522752762
3603,-5.05086183548
3604,-4.03148174286
3605,-0.654916346073
3606,-5.0085606575
3607,-3.44520139694
3608,-3.41403484344
3609,-5.6001329422
3610,-3.68350172043
3611,-3.00268244743
3612,-2.87641978264
3613,-4.40940952301
3614,-1.99457216263
3615,-2.94684672356
3616,-5.59765386581
3617,-6.80226945877
3618,-4.8365240097
3619,-5.71313905716
3620,-4.67903995514
3621,-4.17460870743
3622,-5.26128482819
3623,-4.15076637268
3624,-4.04673147202
3625,-4.3458404541
3626,-3.25159168243
3627,-5.64571094513
3628,-2.63257479668
3629,-4.5543217659
3630,-4.97638607025
3631,0.00202855886891
3632,-2.4547894001
3633,-2.70593738556
3634,-5.120241642
3635,-5.93290185928
3636,-2.3897330761
3637,-2.88139224052
3638,-3.64873433113
3639,-3.77260708809
3640,-4.0084233284
3641,-3.6230802536
3642,-3.96605038643
3643,-3.06520843506
3644,-5.24168539047
3645,-6.09737586975
3646,-5.24869966507
3647,-1.61677956581
3648,-5.54815912247
3649,-0.886319100857
3650,-1.82237935066
3651,-4.85577583313
3652,-2.61353230476
3653,-3.386480093
3654,-5.35598945618
3655,-1.81394910812
3656,-5.28062295914
3657,-2.32995057106
3658,-2.90797328949
3659,-2.00794196129
3660,-3.4756102562
3661,-3.91195130348
3662,-5.63120031357
3663,-2.11646151543
3664,-4.28793716431
3665,-1.2338681221
3666,-6.28218746185
3667,-4.36818742752
3668,-4.13017511368
3669,-2.21456360817
3670,-3.25108790398
3671,-3.19790577888
3672,-4.30171012878
3673,-0.11691724509
3674,-5.07226085663
3675,-4.2222328186
3676,-3.16005992889
3677,-1.6939920187
3678,-5.98088312149
3679,-4.2678527832
3680,-6.00794649124
3681,-3.02559685707
3682,-2.85866522789
3683,-4.00582504272
3684,-5.04155540466
3685,-4.82934808731
3686,-4.68478345871
3687,-0.672660470009
3688,-4.33027982712
3689,-2.61533641815
3690,-4.87014484406
3691,-5.07257699966
3692,-2.10597491264
3693,-1.09978926182
3694,-0.66294491291
3695,-5.63857412338
3696,-1.84170413017
3697,-2.48725438118
3698,-3.32835674286
3699,0.0287248790264
3700,-4.45346450806
3701,-2.5127196312
3702,-5.17763471603
3703,-5.26940011978
3704,-4.35411500931
3705,-2.84053993225
3706,-6.52791976929
3707,-2.94374418259
3708,-4.10323667526
3709,-5.7240114212
3710,-5.16521167755
3711,-4.2391462326
3712,-2.88092684746
3713,-2.85264468193
3714,-3.88490653038
3715,-4.19008827209
3716,-2.87329530716
3717,-2.99475073814
3718,-3.47588133812
3719,-3.66140818596
3720,-2.98359870911
3721,-6.13593959808
3722,-5.46261501312
3723,-5.12903881073
3724,-3.11747646332
3725,-3.44461274147
3726,-2.04645895958
3727,-2.42025184631
3728,-3.57633638382
3729,-1.92068064213
3730,-3.05166077614
3731,-2.38823437691
3732,-2.83998632431
3733,-3.2950026989
3734,-5.33929634094
3735,-4.80881977081
3736,-6.06774568558
3737,-3.30175757408
3738,-5.25929784775
3739,-5.28789329529
3740,-4.71307563782
3741,-0.80761641264
3742,-1.08071815968
3743,-4.18614673615
3744,-5.27133989334
3745,-3.68947649002
3746,-0.156956702471
3747,-2.55502223969
3748,-3.90755224228
3749,-2.70006346703
3750,-2.82733225822
3751,-4.05944252014
3752,-3.3683283329
3753,-4.00259208679
3754,-6.71277427673
3755,-0.717196464539
3756,-4.87864160538
3757,-4.4747838974
3758,-3.97665023804
3759,-3.16214752197
3760,-2.16911244392
3761,-5.15622520447
3762,-4.09724378586
3763,-2.87866592407
3764,-5.11305522919
3765,-5.25730037689
3766,-0.992579877377
3767,-2.95804238319
3768,-5.93865394592
3769,-1.98405921459
3770,-2.13201284409
3771,-4.17102575302
3772,-0.340568184853
3773,-5.28836393356
3774,-4.00752162933
3775,-3.42184638977
3776,-5.26624107361
3777,-4.54575681686
3778,-2.14243412018
3779,-3.10450768471
3780,-2.38160324097
3781,-3.47642922401
3782,-3.94217133522
3783,-1.03782486916
3784,-5.05749750137
3785,-0.311415404081
3786,-2.36698627472
3787,-5.17299413681
3788,-3.26231384277
3789,-2.80082941055
3790,-4.14802646637
3791,-2.02053308487
3792,-5.64551782608
3793,-4.93992757797
3794,-2.54573464394
3795,-4.57744503021
3796,-4.26561689377
3797,-3.71032476425
3798,-3.41293096542
3799,-4.63862419128
3800,-3.77707123756
3801,-4.090903759
3802,-3.50119447708
3803,-2.07386088371
3804,-4.01242351532
3805,-4.92453575134
3806,-6.03624916077
3807,-2.77750396729
3808,-4.09623575211
3809,-0.50422668457
3810,-3.29231119156
3811,-1.85728883743
3812,-5.35254526138
3813,-1.93358802795
3814,-2.36737823486
3815,-3.6323184967
3816,-3.91283178329
3817,-3.10135269165
3818,-6.05322885513
3819,-4.21731758118
3820,-5.15157079697
3821,-2.41578722
3822,-5.18808603287
3823,-4.06662225723
3824,-3.53425884247
3825,-3.21809077263
3826,-3.66012597084
3827,-1.97375226021
3828,-5.5993642807
3829,-6.07434654236
3830,-2.9567899704
3831,-3.15881943703
3832,-3.7352643013
3833,-5.16500329971
3834,-3.44515752792
3835,-4.2034201622
3836,-4.34728813171
3837,-4.09868717194
3838,-3.2104818821
3839,-4.72402477264
3840,-4.04111289978
3841,-4.57511854172
3842,-4.6218419075
3843,-3.08658242226
3844,-5.06690359116
3845,-4.13777160645
3846,-0.305031627417
3847,-5.82249546051
3848,-1.32644891739
3849,-3.97826528549
3850,-3.42946600914
3851,-2.54285025597
3852,-2.64643454552
3853,-2.7967774868
3854,1.24438536167
3855,-1.3496940136
3856,-2.21274662018
3857,-3.72927427292
3858,-4.2714266777
3859,1.18540036678
3860,-2.86217141151
3861,-4.65997314453
3862,-5.09805679321
3863,-3.87048053741
3864,-3.75107502937
3865,-3.95555257797
3866,-2.44895482063
3867,-2.52503848076
3868,-4.43402338028
3869,-5.37000370026
3870,-5.1040391922
3871,-2.25190019608
3872,-2.05286216736
3873,-5.13232088089
3874,-4.18817186356
3875,-5.31039714813
3876,-4.78921604156
3877,-3.63250851631
3878,-2.53632497787
3879,-2.4009988308
3880,-2.92193579674
3881,-6.07008314133
3882,-4.69930696487
3883,-5.61961269379
3884,-5.79775857925
3885,-5.36199140549
3886,-1.08705484867
3887,-4.93628931046
3888,-3.00377178192
3889,-4.3012881279
3890,-4.15923690796
3891,-5.50871086121
3892,-5.33608150482
3893,-3.85398554802
3894,-2.5935356617
3895,-1.90063452721
3896,-5.0896115303
3897,-4.98591518402
3898,-2.62854003906
3899,-5.94273900986
3900,-5.22178936005
3901,-5.62875080109
3902,-5.20306015015
3903,-5.13649225235
3904,-1.30030465126
3905,-3.21614980698
3906,-2.40579080582
3907,-3.09151244164
3908,-4.33823776245
3909,-4.58307170868
3910,-4.59690904617
3911,-5.59396934509
3912,-0.299723297358
3913,-3.33430552483
3914,-3.34329605103
3915,-5.27025747299
3916,-4.83490896225
3917,-4.5439157486
3918,-3.38816285133
3919,-3.18984794617
3920,-5.67520952225
3921,-3.22705984116
3922,-3.89908981323
3923,-5.08727216721
3924,-5.04111146927
3925,-3.90714550018
3926,-5.65615415573
3927,-4.49658536911
3928,-5.09873962402
3929,-4.92870664597
3930,-3.39651894569
3931,-4.71907138824
3932,-4.63448190689
3933,-3.70235800743
3934,-2.88413763046
3935,-1.81070566177
3936,-2.85191869736
3937,-4.48857927322
3938,1.48505008221
3939,-5.27690792084
3940,-5.3143196106
3941,-1.60963213444
3942,-4.33821964264
3943,-4.8184261322
3944,-3.79955339432
3945,-4.12338399887
3946,-5.03097057343
3947,-0.693393707275
3948,-2.9929766655
3949,-4.13678741455
3950,-2.23325204849
3951,-5.68977546692
3952,-3.58259034157
3953,-3.62892389297
3954,-2.47809290886
3955,-3.80132317543
3956,-5.2164273262
3957,-2.0436258316
3958,-5.43295288086
3959,-4.50147390366
3960,-4.8361492157
3961,-3.55510854721
3962,-5.06953525543
3963,-5.17977428436
3964,-3.85449719429
3965,-2.45869398117
3966,-5.40957212448
3967,-5.97685575485
3968,-3.43302869797
3969,-3.23314619064
3970,-5.14974784851
3971,-4.73331022263
3972,-4.55534744263
3973,-4.0646686554
3974,-6.27791023254
3975,-5.50283718109
3976,-3.10545277596
3977,-3.29137372971
3978,-4.20240116119
3979,-3.90795588493
3980,-4.5791425705
3981,-4.07849264145
3982,-3.66568613052
3983,-2.83309149742
3984,-3.38473701477
3985,-5.44653320312
3986,-4.8702712059
3987,-4.68491506577
3988,-2.95110821724
3989,-4.74631977081
3990,-0.986239671707
3991,-4.64493846893
3992,-0.61184746027
3993,-4.61224365234
3994,-5.00846719742
3995,-5.12708997726
3996,-6.36361598969
3997,-2.88223958015
3998,-4.24153184891
3999,-6.15299940109
4000,-3.5231564045
4001,-3.62203788757
4002,-5.59030199051
4003,-1.5448346138
4004,-4.38113164902
4005,-5.10082674026
4006,-4.93490743637
4007,-4.43917131424
4008,-5.79773902893
4009,-3.81844639778
4010,-3.87291765213
4011,-4.20445585251
4012,-3.44580674171
4013,-3.5146420002
4014,-5.13154363632
4015,-0.841739177704
4016,-4.07121181488
4017,-2.22662591934
4018,-6.24114131927
4019,-5.67528295517
4020,-4.79796886444
4021,-0.867092132568
4022,-2.00616335869
4023,-3.57303857803
4024,-4.91861486435
4025,-2.46550321579
4026,-5.96533203125
4027,-3.59180498123
4028,-5.68417310715
4029,-0.341149359941
4030,-4.36424875259
4031,-4.42965841293
4032,-2.63148069382
4033,-4.31221485138
4034,-4.68418169022
4035,-3.95585417747
4036,-2.80185484886
4037,-5.65854549408
4038,-1.42292785645
4039,-2.59508371353
4040,-5.87504339218
4041,-4.49295186996
4042,-4.02327871323
4043,-4.04555654526
4044,-2.33269166946
4045,-5.50025510788
4046,-5.94206857681
4047,-3.4899263382
4048,-5.42106866837
4049,-4.29245281219
4050,-4.717669487
4051,-5.55003643036
4052,-1.07065057755
4053,-4.35541200638
4054,-4.47738170624
4055,-4.83405590057
4056,-5.39638376236
4057,-4.65617847443
4058,-4.84328126907
4059,-1.72503423691
4060,-4.81990671158
4061,-6.11240673065
4062,-3.05167770386
4063,-4.84532022476
4064,-5.35594892502
4065,-3.33275151253
4066,-6.07647752762
4067,-4.84295845032
4068,-1.91514873505
4069,-3.13742113113
4070,-4.33472156525
4071,-3.61733460426
4072,-4.20853757858
4073,-2.56621456146
4074,-1.26537644863
4075,-3.09512996674
4076,-3.05136871338
4077,-1.60643315315
4078,-4.39352989197
4079,-3.11008095741
4080,-3.52166962624
4081,-3.94359374046
4082,-1.62385833263
4083,-1.92115628719
4084,0.403307914734
4085,-5.61752891541
4086,-2.97278738022
4087,-5.49989700317
4088,-2.4132912159
4089,-2.34108448029
4090,-4.38717603683
4091,-1.63736176491
4092,-0.441709220409
4093,-5.63718318939
4094,-5.10749006271
4095,-4.46131277084
4096,-4.50828886032
4097,-3.34097480774
4098,-4.65330219269
4099,-0.688550829887
4100,-5.31390619278
4101,-5.41997289658
4102,-4.80581569672
4103,-4.44495916367
4104,-3.37217378616
4105,-3.6996884346
4106,-3.19373083115
4107,-0.820086538792
4108,-1.93495345116
4109,-3.86531424522
4110,-6.68712759018
4111,-4.00117063522
4112,-3.00188779831
4113,-2.93504309654
4114,-5.71637773514
4115,-4.2687921524
4116,-1.9378978014
4117,-3.98189091682
4118,-1.04013431072
4119,-2.11801600456
4120,-4.20796394348
4121,-6.78677463531
4122,-5.14505004883
4123,-2.87679624557
4124,-2.62101793289
4125,-0.38969618082
4126,-5.5177321434
4127,-4.97470569611
4128,-3.57919120789
4129,-5.77440595627
4130,-4.86606264114
4131,-5.14965677261
4132,-3.76048755646
4133,-4.54856538773
4134,-4.66907787323
4135,-3.51658535004
4136,-3.1171810627
4137,-3.0244615078
4138,-5.91808176041
4139,-5.11602163315
4140,-3.0635612011
4141,-4.55408096313
4142,-3.69254755974
4143,-3.52183508873
4144,-5.38844013214
4145,-5.97999191284
4146,-4.81535482407
4147,-4.89034461975
4148,-3.84995794296
4149,-1.92875111103
4150,-1.14089477062
4151,-3.36865139008
4152,-4.88029241562
4153,-2.46010041237
4154,-1.78584730625
4155,-3.59934592247
4156,-4.24894046783
4157,-2.12316608429
4158,-2.98211336136
4159,-1.98645746708
4160,-2.59207677841
4161,-4.15123653412
4162,-3.53172421455
4163,-4.78444099426
4164,-4.25485658646
4165,-3.82824540138
4166,-3.74596810341
4167,-4.83757019043
4168,-3.90519380569
4169,-3.97571611404
4170,-3.7922372818
4171,-5.36762142181
4172,-5.47185945511
4173,-2.67483615875
4174,-3.26904416084
4175,-5.26074171066
4176,-4.72385644913
4177,-3.4663066864
4178,-4.15211439133
4179,-3.25407505035
4180,-1.7854975462
4181,-5.21374797821
4182,0.246182665229
4183,-2.79271674156
4184,-3.91556167603
4185,-5.10153865814
4186,-5.47814798355
4187,-3.9052875042
4188,-2.34298658371
4189,-3.03342413902
4190,-3.11430692673
4191,-2.83360433578
4192,-6.49609327316
4193,-6.01022863388
4194,-4.78746604919
4195,-3.71478152275
4196,-2.06780648232
4197,-5.39215230942
4198,-2.69589066505
4199,-3.65356397629
4200,-2.00930380821
4201,-4.96968841553
4202,-2.50719285011
4203,-4.62904930115
4204,-3.88178157806
4205,-2.87219667435
4206,-5.01625776291
4207,-4.422519207
4208,-3.29243421555
4209,-3.73954844475
4210,-3.00143313408
4211,-2.12040305138
4212,-2.17984700203
4213,-2.80767536163
4214,-5.20717430115
4215,-3.13251662254
4216,-3.21489644051
4217,-4.97190284729
4218,0.388897299767
4219,-1.58547377586
4220,-4.74997615814
4221,-1.77097725868
4222,-6.34313344955
4223,-1.81478774548
4224,-5.16646528244
4225,-5.20584154129
4226,-4.97815418243
4227,-4.19561767578
4228,-5.4827208519
4229,-3.63002467155
4230,-0.984743058681
4231,-5.23105382919
4232,-3.72710943222
4233,-1.62234866619
4234,-4.56390094757
4235,-3.75378155708
4236,-4.28017520905
4237,-2.17584943771
4238,-5.99446487427
4239,-4.30720710754
4240,-1.85487866402
4241,-2.4139585495
4242,-3.99098587036
4243,-4.95518779755
4244,-4.5559463501
4245,-4.75396299362
4246,-3.7272837162
4247,-0.779578626156
4248,-4.01336288452
4249,-3.16049981117
4250,-3.43428564072
4251,-3.88217139244
4252,-4.28345060349
4253,-4.02366924286
4254,1.29071474075
4255,-3.66103887558
4256,-2.53531050682
4257,-4.96933794022
4258,-5.21219778061
4259,-6.02443599701
4260,-5.98481369019
4261,-3.73588418961
4262,-3.44156861305
4263,-5.87730169296
4264,-3.1225476265
4265,-2.09608197212
4266,-5.7240114212
4267,-1.3334915638
4268,-3.76742815971
4269,-2.90716934204
4270,-2.2823767662
4271,-5.03604459763
4272,-3.43286681175
4273,-4.021733284
4274,-3.99763822556
4275,-6.09931373596
4276,-1.62360107899
4277,-2.96540808678
4278,-2.62584877014
4279,-0.306345671415
4280,-3.407122612
4281,-2.24479174614
4282,-4.67704248428
4283,-4.50082969666
4284,-2.14382529259
4285,-3.29597735405
4286,-5.29697227478
4287,-2.35604572296
4288,-1.52228665352
4289,-5.20554494858
4290,-3.35910058022
4291,-3.24077558517
4292,-3.21912336349
4293,-3.98315691948
4294,-5.31821203232
4295,-6.03298044205
4296,-1.4045869112
4297,-3.89673757553
4298,-1.70190811157
4299,-1.90400779247
4300,-2.63242125511
4301,-3.32402610779
4302,-4.87533330917
4303,-3.66874289513
4304,-4.68860769272
4305,-4.74219846725
4306,-4.75622940063
4307,-2.38269734383
4308,-4.89789867401
4309,-2.71745991707
4310,-4.11721038818
4311,-5.56772851944
4312,-1.31258392334
4313,-4.88381671906
4314,-2.72059059143
4315,-4.14571237564
4316,-3.38141584396
4317,-4.43485116959
4318,-5.36391448975
4319,-3.93405437469
4320,-3.25880408287
4321,-4.88179159164
4322,-1.68655467033
4323,-4.94896411896
4324,-4.60590648651
4325,-2.8698079586
4326,-5.83468389511
4327,-5.68883419037
4328,-2.66343450546
4329,-3.36169075966
4330,-5.02839279175
4331,-4.11896181107
4332,-5.21902513504
4333,-4.26559400558
4334,-4.61606264114
4335,-6.15318202972
4336,-5.72392129898
4337,-5.36043310165
4338,-2.03559470177
4339,-5.59197044373
4340,-2.97045755386
4341,-3.2071056366
4342,-4.7495341301
4343,-2.06226444244
4344,-4.4769821167
4345,-1.77160561085
4346,-3.13317275047
4347,-4.09678936005
4348,-5.45399665833
4349,-1.2182713747
4350,-6.25217199326
4351,-3.77294206619
4352,-3.54745101929
4353,-4.21599721909
4354,-3.82535123825
4355,-1.17966914177
4356,-2.17128920555
4357,-6.61886405945
4358,-3.07466626167
4359,-5.94333267212
4360,-3.98538827896
4361,-5.69365882874
4362,-5.72532987595
4363,-4.9796667099
4364,-2.24768948555
4365,-3.5311384201
4366,-3.42220783234
4367,-2.47300004959
4368,-4.9557185173
4369,-4.01611614227
4370,-1.54653668404
4371,-4.76203393936
4372,-5.59758377075
4373,-5.19822835922
4374,-2.78275728226
4375,-0.386172622442
4376,-5.1094121933
4377,-0.821852266788
4378,-1.3547399044
4379,-5.08949327469
4380,-2.84623074532
4381,-4.1189994812
4382,-5.07084703445
4383,-4.63190078735
4384,-5.31507587433
4385,-4.16038608551
4386,0.58807682991
4387,-3.48686289787
4388,-4.15911483765
4389,-3.86377358437
4390,-5.59329080582
4391,-4.60174703598
4392,-2.69673132896
4393,-5.58344936371
4394,-5.04013204575
4395,-3.15831589699
4396,-4.69156265259
4397,-2.68631267548
4398,-4.03033208847
4399,-5.09528589249
4400,-3.27564048767
4401,-4.71162033081
4402,-4.55521059036
4403,-1.04410135746
4404,-3.24805212021
4405,-4.32376480103
4406,-4.96724653244
4407,0.38132378459
4408,-4.73858118057
4409,-3.45360517502
4410,-5.19318771362
4411,-3.8011674881
4412,1.52284193039
4413,-4.06334781647
4414,-3.67324733734
4415,-5.47387695312
4416,-3.95599341393
4417,-5.53399276733
4418,-4.07026147842
4419,-1.02217638493
4420,-4.26928091049
4421,-3.00913047791
4422,-4.73811864853
4423,-1.01760041714
4424,-5.75757598877
4425,-4.54488611221
4426,-3.71527171135
4427,-4.5365447998
4428,-4.17009973526
4429,-3.96645569801
4430,-4.8058962822
4431,-5.20621442795
4432,-4.99467897415
4433,-2.98449349403
4434,-4.56648778915
4435,-5.38511991501
4436,-2.43498253822
4437,-3.43818163872
4438,-5.27657079697
4439,-3.83869862556
4440,-2.75975775719
4441,-6.4349398613
4442,-5.95845317841
4443,-5.45931911469
4444,-0.917547166348
4445,-1.10940146446
4446,-3.23365259171
4447,-2.64288759232
4448,-4.5811958313
4449,-3.42758774757
4450,-0.149249836802
4451,-4.06713008881
4452,-4.31205797195
4453,-3.69044756889
4454,-3.22821474075
4455,-5.63918399811
4456,-4.5897731781
4457,-1.65649008751
4458,-0.287027716637
4459,-5.07995557785
4460,-2.18084621429
4461,-4.92400360107
4462,-2.9834215641
4463,-5.63575696945
4464,-5.82797288895
4465,-2.25968956947
4466,-5.16232347488
4467,-4.98590707779
4468,-3.00702571869
4469,-3.28766846657
4470,-3.41653943062
4471,-4.85797071457
4472,-4.36847496033
4473,-3.42740225792
4474,-4.73406457901
4475,-5.44379425049
4476,-4.90446901321
4477,-4.84879732132
4478,-4.75611257553
4479,-1.02182888985
4480,-5.90424871445
4481,-6.34539031982
4482,-2.69113469124
4483,-2.42811274529
4484,-2.38938999176
4485,-4.16332101822
4486,0.0754920318723
4487,-3.73973894119
4488,-3.5815718174
4489,-6.64879465103
4490,-2.04883003235
4491,-4.05433511734
4492,-4.45852804184
4493,-0.312897145748
4494,-5.16273212433
4495,-0.416741430759
4496,-2.63977479935
4497,-0.802232027054
4498,-4.20511674881
4499,-2.35951900482
4500,-2.29897379875
4501,-3.19760322571
4502,-2.51862382889
4503,-6.07456970215
4504,-4.02335977554
4505,-4.4706993103
4506,-5.2677283287
4507,-2.67370963097
4508,-0.526899576187
4509,0.327534794807
4510,-2.00774621964
4511,-4.57351350784
4512,-5.95748329163
4513,-3.68391251564
4514,-3.85337352753
4515,-3.18266177177
4516,-5.4644446373
4517,-3.50081110001
4518,-5.60330295563
4519,-5.27643537521
4520,-2.13921165466
4521,-2.80063819885
4522,-3.61591553688
4523,-3.3977253437
4524,-5.93818950653
4525,-2.89715385437
4526,-1.77598237991
4527,-0.558157801628
4528,-2.33464598656
4529,-3.51100516319
4530,-0.492334097624
4531,-1.15087103844
4532,-5.89711523056
4533,-5.60585975647
4534,0.685140609741
4535,-4.293633461
4536,-3.93280720711
4537,0.0651703625917
4538,-1.28060424328
4539,-5.34315156937
4540,-0.873389542103
4541,-5.22216320038
4542,-5.35421419144
4543,-5.95101070404
4544,-5.73719120026
4545,-5.43060541153
4546,-4.74572849274
4547,-1.17133796215
4548,-4.34045314789
4549,-5.16240024567
4550,-5.40318107605
4551,-3.07781124115
4552,-5.12984418869
4553,-0.930597603321
4554,-5.83523607254
4555,-4.74990940094
4556,-1.92695093155
4557,-1.98444461823
4558,-2.30775976181
4559,-3.92660927773
4560,-4.15607643127
4561,-0.768611490726
4562,-4.83434438705
4563,-2.93006372452
4564,-3.65179562569
4565,-2.38927793503
4566,-5.42357873917
4567,-3.3903260231
4568,-4.74111127853
4569,-6.30792236328
4570,-4.65091228485
4571,-3.059009552
4572,-5.33239603043
4573,-4.63580751419
4574,-5.28456830978
4575,-3.65426969528
4576,-2.76192259789
4577,-4.40159463882
4578,-1.04381108284
4579,-4.42638254166
4580,-5.10247421265
4581,-3.92752528191
4582,-4.13877344131
4583,-4.98293113708
4584,-1.19752502441
4585,-4.95282840729
4586,-3.50379538536
4587,-0.602832138538
4588,-4.62224912643
4589,-1.10139620304
4590,-1.86781358719
4591,-5.789249897
4592,-5.05757331848
4593,-3.77809739113
4594,-4.44925403595
4595,-4.59979391098
4596,-5.84933519363
4597,-0.609135210514
4598,-2.71742606163
4599,-6.32668352127
4600,-1.42814278603
4601,-3.79431176186
4602,-5.49564266205
4603,-1.25736248493
4604,-4.26529836655
4605,-4.93305206299
4606,-3.89242315292
4607,-4.23903226852
4608,-4.77810382843
4609,-4.01115322113
4610,-4.41784095764
4611,-3.7255833149
4612,-3.29108500481
4613,-4.51486349106
4614,-5.29918241501
4615,-4.91387748718
4616,-0.00626144185662
4617,-3.65962958336
4618,-3.62950396538
4619,-3.34049487114
4620,-1.60060942173
4621,-4.83432245255
4622,-4.57682466507
4623,-5.55420589447
4624,-3.53973126411
4625,-3.84606289864
4626,-4.39061880112
4627,-4.42819070816
4628,-4.65457391739
4629,-3.80218052864
4630,-4.9637131691
4631,-4.02977323532
4632,-4.75670385361
4633,-2.30210900307
4634,-5.38167762756
4635,-2.00888800621
4636,-4.61400604248
4637,-4.96661090851
4638,-2.55135297775
4639,-1.81592059135
4640,-4.51671981812
4641,-5.59329080582
4642,-2.48944187164
4643,-4.30375623703
4644,-4.8473315239
4645,-2.18073534966
4646,-4.41161584854
4647,-1.39936411381
4648,-2.65773129463
4649,-3.79725384712
4650,-4.87009429932
4651,-5.47439432144
4652,-3.8234667778
4653,-3.39481925964
4654,-4.67312717438
4655,-2.90416717529
4656,-1.52324748039
4657,-3.24908089638
4658,-2.70394635201
4659,-4.70716953278
4660,-4.48577737808
4661,-3.79160499573
4662,-3.35384893417
4663,-2.51333355904
4664,-4.24631881714
4665,-5.01463508606
4666,-2.74426412582
4667,-6.41779661179
4668,-3.48669576645
4669,-3.0010972023
4670,-4.89416646957
4671,-3.82577562332
4672,-5.65821218491
4673,-2.84845399857
4674,-4.13042974472
4675,-6.5652551651
4676,-3.48746919632
4677,-1.4707763195
4678,-3.80437898636
4679,-4.8678894043
4680,-4.57423210144
4681,-4.20333433151
4682,-1.78700947762
4683,-1.70683133602
4684,-5.71373844147
4685,-6.1929769516
4686,-3.73827505112
4687,-0.911858916283
4688,-4.42201042175
4689,-5.46128129959
4690,-2.59133172035
4691,-4.83148002625
4692,-4.04322528839
4693,0.209227710962
4694,-3.5905354023
4695,-3.50135135651
4696,-4.67502355576
4697,-3.86047434807
4698,-2.91837596893
4699,-3.71433353424
4700,-5.29670286179
4701,-5.76716041565
4702,-5.36366462708
4703,-3.0312333107
4704,-1.82721197605
4705,-5.75683498383
4706,-6.30294132233
4707,-4.49394893646
4708,-5.55096006393
4709,-1.40627038479
4710,-5.97219610214
4711,-2.32278442383
4712,-5.22007322311
4713,-4.80010557175
4714,0.276731312275
4715,-4.73158073425
4716,-2.4035410881
4717,-4.69404792786
4718,-4.20793199539
4719,-4.45044994354
4720,-2.91151618958
4721,-5.57855081558
4722,-3.48036456108
4723,-6.34595012665
4724,0.825112164021
4725,-2.85088610649
4726,-0.641672134399
4727,-2.75665616989
4728,-2.60701680183
4729,0.974033176899
4730,-4.1336722374
4731,-5.83545541763
4732,-2.67688274384
4733,-0.598450005054
4734,-1.50713300705
4735,-4.02368211746
4736,-3.85243487358
4737,-2.72778081894
4738,-3.78486800194
4739,1.17982137203
4740,-1.75934314728
4741,-5.8579621315
4742,-4.6870675087
4743,-4.43912696838
4744,-6.71007966995
4745,0.461010783911
4746,-3.28058767319
4747,-2.58137345314
4748,-4.15051078796
4749,-4.48425292969
4750,-2.25886106491
4751,-4.05915355682
4752,-4.16289186478
4753,-3.99175262451
4754,-2.97670722008
4755,-4.78656101227
4756,-4.77182245255
4757,-3.78259253502
4758,-3.60204958916
4759,-3.63594532013
4760,-5.2945561409
4761,-3.81978702545
4762,-5.35820674896
4763,-3.95523262024
4764,-5.51997327805
4765,-4.92726659775
4766,-4.64209938049
4767,-2.6304693222
4768,-2.18157505989
4769,-4.84025096893
4770,-4.080327034
4771,-0.281145870686
4772,-2.61336398125
4773,-5.92008399963
4774,-2.37228918076
4775,-4.55339956284
4776,-4.42847299576
4777,-3.73635387421
4778,-2.88278651237
4779,-4.11809444427
4780,-3.33588051796
4781,-5.20042514801
4782,-4.60847806931
4783,-2.96206045151
4784,-5.70053100586
4785,-2.21594238281
4786,-6.33691978455
4787,-3.86793828011
4788,-5.9046254158
4789,-5.14252901077
4790,-2.5617108345
4791,-1.94286668301
4792,-2.60977768898
4793,-3.38157463074
4794,-4.78637123108
4795,-2.13342738152
4796,-3.10436987877
4797,-5.55059432983
4798,-0.328499406576
4799,-4.48337697983
4800,-4.69235992432
4801,-0.287289232016
4802,-2.20067095757
4803,-2.49149274826
4804,-5.36863470078
4805,-1.74309015274
4806,-4.20320367813
4807,-4.33925437927
4808,-0.913717389107
4809,-5.63828325272
4810,-5.37194633484
4811,-1.81266999245
4812,-4.11327695847
4813,-4.4389462471
4814,-0.840034663677
4815,-0.462331086397
4816,-4.64841651917
4817,-2.50254654884
4818,-6.00318956375
4819,-2.8131673336
4820,-2.09328746796
4821,-5.29141426086
4822,-2.23735809326
4823,-0.881246328354
4824,-4.75474071503
4825,-2.65541744232
4826,-2.5875210762
4827,-5.14299440384
4828,-5.0753993988
4829,-2.62933349609
4830,-5.17764186859
4831,-4.35618495941
4832,-3.96437883377
4833,-3.54683685303
4834,-5.21809959412
4835,-5.0114569664
4836,-2.56220197678
4837,-0.810175538063
4838,-4.10253715515
4839,-1.31549549103
4840,-4.03907585144
4841,-4.47157049179
4842,-5.0439248085
4843,-3.71236467361
4844,-1.26900267601
4845,-2.90591335297
4846,-3.81244206429
4847,-5.03339529037
4848,-3.1899394989
4849,-4.35800695419
4850,-3.66413712502
4851,-3.92674279213
4852,-2.67397499084
4853,-3.80711555481
4854,-3.86664533615
4855,-1.75598466396
4856,-4.8846821785
4857,-3.88379359245
4858,-3.53243923187
4859,-5.25113630295
4860,-4.54612636566
4861,-2.769323349
4862,-3.80214238167
4863,-4.15019321442
4864,-3.75729560852
4865,-3.35080647469
4866,0.844349980354
4867,-3.3364918232
4868,-2.91985821724
4869,-4.62940216064
4870,-4.73888301849
4871,-1.74596810341
4872,-5.1391658783
4873,-1.44669628143
4874,-0.258868515491
4875,-5.12826299667
4876,-0.965442955494
4877,-5.11835479736
4878,-1.8745663166
4879,-4.05904912949
4880,-3.37400960922
4881,-2.15617823601
4882,-4.5734038353
4883,-2.66563653946
4884,-5.70741176605
4885,-4.66270256042
4886,-3.47224211693
4887,-3.98069095612
4888,-5.66405248642
4889,-5.47310400009
4890,-6.20329141617
4891,-6.02521944046
4892,-4.99849462509
4893,-5.8914604187
4894,-4.70395183563
4895,-4.58962440491
4896,-2.75006079674
4897,-4.06086683273
4898,-4.99001216888
4899,-4.61474561691
4900,-5.48793792725
4901,-2.60720992088
4902,-3.91602945328
4903,-4.95886087418
4904,-5.11256027222
4905,-2.29375529289
4906,-2.5515935421
4907,-2.75027418137
4908,-3.55886864662
4909,-2.05246210098
4910,1.70898926258
4911,-2.73085999489
4912,-3.81809329987
4913,-0.318927705288
4914,-1.54921638966
4915,-7.6997013092
4916,-5.60549879074
4917,-4.29626512527
4918,-3.752628088
4919,-6.2234005928
4920,-4.84498071671
4921,-0.733662545681
4922,-6.17198562622
4923,-5.41934585571
4924,-3.66085648537
4925,-4.59623241425
4926,-1.70713198185
4927,-4.95820236206
4928,-4.30898237228
4929,-4.59961414337
4930,-4.91658258438
4931,-0.565429091454
4932,-4.08211708069
4933,-2.31459379196
4934,-4.78891849518
4935,-2.8802075386
4936,-5.44497060776
4937,-6.28952312469
4938,-2.97420072556
4939,-2.41152262688
4940,-4.11999559402
4941,-5.60226964951
4942,-5.46265697479
4943,-4.32648324966
4944,-3.57796597481
4945,-3.05823493004
4946,-1.43137037754
4947,-1.22530698776
4948,-5.30939054489
4949,-0.897832512856
4950,-2.1073589325
4951,-5.20906257629
4952,-4.76178979874
4953,-1.61317908764
4954,-3.58837461472
4955,-3.92653107643
4956,-0.233043134212
4957,-5.83625507355
4958,-4.64051055908
4959,-3.11889004707
4960,-2.99518799782
4961,-2.65337371826
4962,-3.15821075439
4963,-1.22923362255
4964,-3.86562824249
4965,-2.69592809677
4966,-3.93341159821
4967,-5.48406982422
4968,-5.02906036377
4969,-4.71312522888
4970,-1.7381837368
4971,-2.96788644791
4972,-5.37314891815
4973,-4.71194171906
4974,-4.01985692978
4975,-1.16146147251
4976,-0.342567443848
4977,-3.40543842316
4978,-5.01867961884
4979,-1.33845710754
4980,-3.43771195412
4981,-1.51903808117
4982,-4.76430892944
4983,-3.51905941963
4984,-2.32335639
4985,-3.30408096313
4986,-4.84517145157
4987,-3.90278172493
4988,-4.65457296371
4989,-1.78885388374
4990,-2.88170433044
4991,-1.87205147743
4992,-2.82955098152
4993,-4.77212142944
4994,-5.07588529587
4995,-6.48606348038
4996,-6.23429250717
4997,-5.68004846573
4998,-3.88653039932
4999,-4.16235780716
5000,-4.47857522964
5001,-2.82432603836
5002,-3.94154548645
5003,-5.24703884125
5004,-6.2061009407
5005,-3.12073922157
5006,-4.75930452347
5007,-5.80038356781
5008,-3.68384575844
5009,-2.77720928192
5010,-4.73079442978
5011,-5.23445796967
5012,-3.56170916557
5013,-1.94828283787
5014,0.194148749113
5015,-5.54006433487
5016,-3.26612234116
5017,-6.37419271469
5018,-3.36437106133
5019,-6.11294746399
5020,-1.94311475754
5021,-4.9798169136
5022,-3.99986624718
5023,-5.25312995911
5024,-4.37942171097
5025,-4.68000221252
5026,-3.67129993439
5027,-4.72967147827
5028,-3.828738451
5029,-3.63103961945
5030,-4.45725059509
5031,-1.14782977104
5032,-0.358934789896
5033,-2.2640311718
5034,-4.50967407227
5035,-4.75740623474
5036,0.0529469139874
5037,-3.61054062843
5038,-1.87809169292
5039,-3.3872988224
5040,-3.97844028473
5041,-2.75350213051
5042,-4.17640733719
5043,-5.02566576004
5044,-1.99763286114
5045,-1.12256979942
5046,-4.1747045517
5047,-5.20754384995
5048,-6.58708238602
5049,-4.70217418671
5050,-4.96213293076
5051,-3.81206178665
5052,-4.66442537308
5053,-1.0032235384
5054,-5.2369966507
5055,-3.1669614315
5056,-0.59762442112
5057,-5.32336235046
5058,-4.80802726746
5059,-2.85117292404
5060,-5.64525985718
5061,-2.11282014847
5062,-4.13558530807
5063,-2.45392847061
5064,-5.62959861755
5065,-4.81932973862
5066,-2.4533367157
5067,-1.57420396805
5068,-6.02582979202
5069,-3.73016452789
5070,-2.96346855164
5071,-3.44160413742
5072,-0.217416733503
